{"LayerCount":3,"Sizes":[784,15,10],"Weights":[[0.7812283669223729,0.8431488763398854,2.312650180822793,0.7999764302185273,2.0855265225371356,-0.8026789839672114,-1.052285183481659,0.7688745163110138,-0.1937331074456087,2.706968809807023,-0.1871590673087093,1.7080942561259354,0.23623665639376631,0.45462637584796756,1.0330063696734983,-0.7869465878944516,-1.3316459956461435,-0.2590723104966058,-0.8874973960450457,-1.3351497551534892,-0.420973612100037,0.15197663635882003,-0.1900145828360033,1.057206877225184,1.6227929887897101,0.09984165289898661,0.2291794425892962,-0.12763587505970153,-0.015131497986606186,0.1481780349899622,2.665485865434528,-0.7848794965753794,-0.0925399080734394,-0.41258556377104694,0.38789684674141284,-0.3261287921200116,0.6851720456038035,-0.3956614317365416,-2.3116837533227113,-0.03464662958460109,0.37173480421762933,1.3698267001927134,-0.7597886120574262,-0.7303407665420453,0.6342779167875203,-0.9477914004124613,0.7085535578449154,0.8482437638233039,0.6219769904671362,0.29779496751844936,-0.27593877902642827,-2.233963637554086,-1.1564853960318342,-0.7919446610659429,0.13511377846303374,1.1384921614392773,-0.9853513930722002,-0.19521764233719482,2.1735353195296043,-2.1352458862592583,-0.9579297484501103,-0.370656466214655,0.4356772967245815,1.0816803501140948,0.4276894162218627,-0.5075706452679478,-1.0484723794063076,-0.8580387235602985,-0.4981924411676687,0.8985372950802797,0.6481153654646037,-2.4999630009277496,0.2801631492506712,-1.084384404993128,-0.8721630939881968,-0.7801342954465418,-0.08647366088111606,-1.026288091563763,0.8371988721434509,0.3517333240544661,-0.5135378763151497,0.5137161822267053,-0.2730166740675083,-1.1525528927292508,-0.3100078631294506,-0.03763193974257277,-0.13248578718870768,0.009223841483253649,-0.4188418161718163,-0.8644137489510463,2.1581573803523075,0.25265394551169673,-2.4193498951168184,-0.7966773497367886,-0.007575279505734803,-1.5612043210324156,-1.2861855581210806,-0.23848853650310423,-1.6830869753761848,1.9254879568372902,2.0156997840225466,2.1771724917760125,-0.8836824487717186,0.3163207859587484,-0.3348370934215472,-2.035215694507024,0.7635300496275003,1.6465594416825926,-1.4955317685137948,-1.408875543040719,-0.7350915179272731,-0.05107104021842314,0.2970115311664826,0.5957084781242206,-0.24256237203230285,0.40980174920644075,1.4935466536589384,-0.541221946925815,0.12292562471255908,0.4866811255666443,0.8344991555350029,-0.15530327408492614,-0.75525783879859,1.9172854014868317,-0.04371905058065753,0.6311058905806912,-0.8486915879887977,-1.1424464970586303,0.04863889409675872,-0.39972521069016914,1.1701480132401882,-0.38651440797926806,-0.4654773988057239,-0.5131469368002717,1.4209316069634081,-0.1635906297736348,-0.26625410271666494,0.0036824130055660782,0.3094380714918033,-0.1740401526201199,-2.3965149561914347,0.7267485852532742,0.5799818150767558,-1.0234362094979552,-0.17500717565513083,2.092464659339049,-0.7408909161628839,0.6712369500680031,1.656489166473997,-0.40050591416474124,-0.06305610903192982,-0.5090473716986851,0.16114152342212393,1.1731828578174226,-0.15311197230578855,-0.26159821958621043,1.3354815331703593,-0.7510229865133582,0.41639630821076,1.0921516766325081,-1.4424436996492649,-1.1684104800889026,1.2917200712705996,1.1218738378559892,0.7818988425750637,-1.676868834074101,-0.1218176891150435,-0.03494964554759438,0.12417482488411061,0.6335837658052408,0.6565606937184492,-0.33170125914034154,1.2591586292285428,0.4244391643779875,0.8589881628102868,-0.10806088794754434,0.9009508914111793,-0.41969268024386525,1.7242666344490805,-1.0006901168997133,-1.225841667367891,-0.6591220781566305,-0.007739689017578662,-0.6797316390855349,-0.9500017383967273,-0.0700040701620093,-0.1736930834033588,1.449696109678585,1.8901498435594315,-0.962714728175077,-0.19457081622020914,-0.46029694435810703,2.4173444044274452,0.4643363045001369,1.729160099097954,-0.7050246688370956,-0.840696691914269,-0.35888712354815444,-0.16135062832966246,0.0057554652089163326,1.0549728950776611,1.8341476528185463,0.8307401294812219,-0.07710701226228633,1.4007399316614662,0.08884684871467222,-0.5488395629151084,0.30801401357017205,1.7384226139332482,0.48873677080115974,0.42226476606058316,0.8706904354200037,0.07500268541273299,0.7863267462103284,1.2755743132761315,0.9493269856009833,-1.0080158059768218,0.20252148776733345,-0.7168951530264872,0.9014291492909937,-0.3121275112258625,-0.6673989363854627,1.4441234150220705,2.270294141539349,-0.4445790125263762,-1.4287441560833092,-0.405966576077716,-0.3180886583083505,2.3223780808471437,0.10575679723103025,-0.47426193093643926,-0.4961192818809761,-0.9869966242720667,0.06894620133093005,0.30576893738834476,0.04167282074935445,-1.0606834457285528,-0.48155790732115783,1.3067290449723914,6.878279281725963E-05,0.640131939956254,-0.043305408936615324,0.9130078098553304,0.40696220510760067,0.610188590649731,0.04442478136255575,-0.6684198737880888,0.04763617601255302,-1.0239494149642812,-0.715583853175939,1.8257190695590093,1.2276871334538395,-1.2741516374930413,0.9541839868011177,-1.414910603998965,-0.13171297730927786,1.707399589426554,0.08079202249482866,-0.719580539332712,0.1269914145186493,-0.0752150517488408,-0.3822411372761107,0.29771077800437895,-0.15066043153667447,0.20234944805312116,-0.7253118961834867,-0.4470127854106402,3.0738046379294794,2.4709701835793747,-0.24619486144186914,0.5896078939471244,-0.35539997416753,0.866792229464534,0.36416745545498896,0.8310464561836791,0.9317557625013003,1.2932591792887336,0.13150945862932747,-0.12819323407471986,0.6879620696855705,-0.8268792547718598,1.347876397266752,-0.9310602372970641,0.4973433656444897,-0.9299692746229736,0.11628778506199701,-1.8336091511558474,-1.2778859602392163,-0.4842105407981562,-2.402735919741732,-3.008260061243066,-2.9149038301440062,-0.5908167528822488,-1.862847061659185,-1.5706789974275386,0.514024580512522,0.9503828599845642,2.7941396069160813,-0.7947428848785361,0.12465307407375652,-0.39063585648058013,-1.3378575341657881,-0.9011904593554436,0.38458962186949913,0.23591291821231902,0.25831678189085067,-0.5783887729263675,-1.4611682837432827,0.9802438252774864,1.3746342024019207,2.32460733328736,-0.43360688676450876,0.7607251404583838,-2.445041222812747,0.7819894646552923,-0.4452022347883846,-1.6836688548184016,-0.9932043416529813,-1.1632761143189203,1.20922022821393,-1.1554766615448342,-0.8195083399924852,-2.569661337006492,-2.796059321478395,-0.8869381427069822,1.8613883188490503,0.8043848402436496,-0.17190530321275896,1.0531057156368353,-1.6685121029624124,0.7173384534501851,0.34010571782931587,-1.5343871860490976,1.1022615002372187,-0.8829941233157983,1.6333122450019504,1.2784506312175443,1.228903062143986,0.7120913435407082,-0.3192862599906777,-0.16751547376075482,-0.0027240659635868088,0.8817912996994849,-1.3853217830292672,-1.0818612708252733,-1.4537819120494426,2.7710208903548073,-0.2916416466419089,0.5556370325364227,-0.6306973795816325,-1.739040870597305,-3.1097685713067533,0.6751716289446107,1.180821928069858,0.34357758093924406,3.0531851184128116,-1.1588271413091473,-1.5808426044699047,-1.6883607974149015,1.1001192767433217,0.576692655602627,1.3818497547351036,-0.45646170009768083,-1.7605087164964344,1.77705490033994,1.2581437423055293,-0.8585336472040643,0.2839835433771425,0.9032766212971142,0.9921472044130969,-0.6121512499311804,-0.2304516950049952,0.9523088217690437,0.9125624771274804,0.30555939179828334,0.8134137807161016,-1.2421698450177532,-0.3731048400028936,-1.8085432789578133,-4.374475407327087,-1.0594937043725459,0.25879215663288635,-0.7996462313830259,1.7665470420547926,-1.0290154401499703,0.775660049833023,0.50765397940987,-0.9286964606476863,-0.09474091274026958,0.37251676803823924,-2.470488961051656,-2.172099542655446,0.01077612467329627,-0.12963087510706833,0.07155059264492075,1.31999412501908,0.4487407945701746,0.5059597247125212,1.625841540284578,1.5953069587154212,1.4308277988341809,-0.22756130360876847,-0.45376503163890514,-0.8576095977371978,-1.0624688654613874,-1.750035818157341,-1.5436747525757695,-0.9200841919194006,-2.309407746240686,0.027157152708012684,1.1865393996265925,0.3718839903045965,0.9580061596060944,2.3483035555031693,2.2207822861641704,2.5701151565126437,0.5521111374884156,-0.33957322404902696,-1.8576352259437154,0.9098775825681125,-0.2074375538051701,-0.10297088766036362,-1.1005517460861893,0.7811311548893898,-1.1053727506874178,1.7152747609679162,0.7387522822401938,1.4891678370912065,0.8522576880148767,1.7720486453608248,-0.24257578206107944,0.24322767317560184,-1.252703244287763,-1.4046063191237712,-4.106313545146452,-1.4207666796706382,-1.616578482901067,1.4809840214890773,1.173387769037371,1.4831624351632644,2.2498551873399872,2.7631958947233466,1.2255840529215591,0.3132367938273744,1.1064096907852052,-0.15000155265452492,-0.8136643544174105,0.2792618366166946,0.9311183044818557,2.2162819919897236,-0.22813866959014661,0.5375186593998236,-0.40279596125296824,2.013960796298708,1.3506828339296917,1.7647048705522665,-0.4875600424552261,-0.8838723086225643,0.09770752482479281,0.023457507396695047,0.24155246156012897,-1.1488895358859608,-3.1212507214329324,-1.7599181695889554,-1.063356462214316,2.162814942968457,3.5689161334843424,2.774734047047681,3.344214092069434,2.17126063883777,2.50696447164054,-1.0383380655540972,0.1589084073774364,-0.01738359919473133,-1.0179637313336405,-0.09688595112652407,-0.2610509139140229,0.043602619653306335,-1.3565304500051556,1.9138684659876168,1.83670891122371,0.7024007428944471,-1.0962398507866926,-0.4874054602741668,-4.357440150639309,-2.6902574959512,-1.9308261711606853,0.12151298850796396,0.017927082355155728,-0.8991351220810299,-4.787547437007422,-0.20822007531253425,2.529477169081502,4.23410545216276,1.6507561358193275,1.7562626254917495,-0.43180135858065266,0.5971479840629278,-1.0940431940725723,-0.4918050500209228,-0.16712990700065067,-1.6409777242422594,-0.9002839184765203,-0.27022363435935787,0.8551308634589602,-1.5207069097383896,1.7848765471742472,-0.7702812447689615,3.3666098044800954,0.9911127633056338,1.1720450244323417,-1.5861748014199308,-1.8953937225385622,-2.0331368911647756,-3.275284034470142,-4.470551722966709,-4.3323282391035836,-4.328222501189832,-1.0351399260975744,2.934177734477852,2.397548630903159,2.1876022261456844,1.306305144578814,0.8187972344475271,-0.12223409542863761,-0.02929112096152307,-0.12331718890259512,-1.538428244711581,-1.6967080130924856,-1.1776590910809377,0.9060837640369368,0.9337297304626992,0.1632333524721648,-0.785876470381376,0.1702604449284187,1.5551424457354759,1.6205288285527248,2.4438986526607884,-0.1760193385575957,-0.5043136598450223,-2.3357397716899397,-2.405256423540452,-1.3562974959741088,-1.7483773437804544,-4.3215647706710305,-1.9578992264975972,-0.006298767495754799,2.877126790725124,3.101598318230406,0.5371401065528332,-0.3034456527488778,-0.0738308536908331,1.716112638904972,0.5313322036783488,1.509505002784958,-0.46671812343964647,-1.1596682160844651,1.8888031446436844,-0.3422611130545948,0.18976373495489662,-0.2721276746402001,0.6344695650564145,0.5781988851579033,2.685672572108774,1.6867697023176902,-0.7260725519512891,-0.824455992835649,1.0546300045367059,-1.1149717927357794,-0.924478346473983,-0.683112372776177,-1.176530886238066,-0.7959776655523634,0.36041413037138403,2.54652083507901,2.4305139451812883,-1.3196924446408238,0.49627733855042927,1.706858729089417,1.1403429593397019,-0.25158335240273394,-0.7168293105773719,0.5504594644564513,0.28306278691880543,-1.5535219086132928,-0.3044132069297113,-0.4528230958483913,1.7984815890425996,-0.41302871774037353,2.23387365205386,0.5479509957406157,0.6852195075536284,1.3372259366838128,-0.38892632522701653,0.8701601454942076,0.5590106005724377,0.7839036266634637,-0.885303105628087,-0.6213359485743841,0.021162460582627503,2.9688194697855117,0.928440467693116,1.777901951966683,0.8221016239892648,0.0003829335718246357,-1.1365160626828648,1.1679928785689213,-0.9093521997348593,0.8261249005459972,-0.4369376022384939,-1.0150120021146356,-0.26412199503163025,-0.7579078610614168,0.3540948443969611,-0.6467883990564808,0.6814184334031679,0.7070764606610479,-0.9465153787175565,-0.04142909014488014,-0.6541316700049807,1.2356423451714253,-0.8783126717170329,0.22911037282206406,-0.6558949538399459,0.046726415155369426,0.15426226811613916,-0.660152227179236,1.8783348632058252,-0.11033627098756536,0.9462151135558047,0.5397235247876983,0.1579150364360813,2.1535402332631968,1.01644028220244,-1.6710592055171527,1.0954192557714861,-1.0703265358025915,-1.9828250549309985,0.25750293342909086,-0.302371964200178,-0.15591497352811443,1.1998028377804655,0.06087805766154988,1.7662221881631823,0.21871670253810277,-1.3914995590892059,-1.524613923403806,-0.3325171267969886,1.8197127852676778,2.243981748729882,0.6103343627404707,1.934719608401928,-0.8433502043543744,0.2803113536546746,0.08390146076227241,-0.7178999557334048,0.4537696283165597,0.22576553851230513,1.6156173092148751,1.3421651097505567,0.14494209434771985,1.1242929425982986,-0.23902332460343748,0.12941918428234778,-0.7403045379417477,-1.6238749062586844,0.012407880379522528,0.27717741168337545,1.443712809148022,2.1149781387982483,0.3617854919131061,-1.0878172624301405,1.0729942761931386,-0.836691910683978,1.7094201392337716,-0.6408164198072807,1.843217221553599,0.4776286444553927,1.1069782218779693,2.0556420722282374,0.6542196672307831,0.25162277224569324,0.7181809010424102,0.41463758809313783,2.1197096730161364,0.23863037371885235,1.213226561055084,0.19428771481696386,0.16663735893479945,1.3369717569650816,0.5171247277618399,-0.930469297219844,0.11547486200630841,1.7413203046756685,0.17209475960078027,-0.1838412129038724,-0.8318715610889054,-0.8806627229895907,-0.6977402186155571,-0.5369195362914885,0.44653873767723984,-0.08227204384753109,0.080277775582258,-0.4266349943127145,0.853558274349783,0.8489581896444872,-0.0998119895742134,0.46965445032241177,1.6184309360192226,1.2648361916899444,2.1721710326777326,2.135125849915174,0.9497076578545881,3.6801481616839227,-0.5583592758791059,0.903033864193726,0.6582406799919063,1.0134930809814782,0.9558559308750343,1.322116949988778,1.4448656664441066,0.7719366506582691,0.6348542211915407,0.5410545499244125,-0.26980399389794363,-1.7419136683063206,-0.549647492525044,0.3665609947498714,1.3100699520513244,0.6858682534646044,-0.32994374159438633,-0.954047763198054,0.5453510299958902,0.32360288585528035,0.378611786720315,2.7960140835513845,0.4385070351079427,0.6885759890575013,1.767416833410088,0.34531188350115566,1.5373785134957427,1.9959910725371917,-0.3511490174201064,3.1886131899068797,0.6376038566344903,0.9229379417023665,0.8334660352136601,-1.027001191364444,-0.13576110671526043,-0.6177121825467239,0.2770778394680389,-0.0896137007120928,-0.16683146579317057,1.6687544288132303,2.127425806560137,0.30140104853849486,-0.9893599422982345,-0.32584020840911904,1.5884722130704083,0.8522494377426885,1.0204943238357793,0.452658885448617,-1.5488007333844496,1.0753896252349016,-0.9012606532839346,-0.7891376726988718,-0.7288465946450164,-1.9396676446883525,0.7565027217258105,-0.876584719446638,-0.9401778059410016,0.7710513967597059,-1.5963417650779543,-0.2896919729351856,-0.03658123238518374,0.6515574511569939,-0.11940078084872545,0.531021713787156,-0.6169130850352534,1.4457318865206688,-0.8639712815906065,0.8442001376086622,0.12489666019015552,-1.2723044521921663,0.3064060619907464,0.46617973597173784,-0.14048190807146815,0.30719048347841216,-1.2074799633126667,-0.19476263869985438,-2.1391530680804283,0.41713972922550085,1.3968833478287421,1.6986117695929446,-1.571169465876159,2.3649493482283805,0.6606729967973172,-1.6087854794846193,-2.4890705868650165,1.1525570747371512,-0.9146423534622918,1.306132916005331,0.4496589558264639,0.015282651527483114,2.5278597302753596,1.3700953046678668,-0.10870655095614883,-1.832443038450651,-0.7616509411490384,3.144397793127886,0.4717450723602945,0.41695998622782443,0.2283295942197241,-1.3643532720383442,-1.2383228925916048,0.3981068751180112,-1.487230753536643,1.0341857548678204,0.05207830059866429,-1.0059213955455102,-0.0027361606350483295,-0.45206740953051533,-0.5068081403120714,0.1445930580493472,-0.6540663699344728,-0.1698959449943534,0.5052004231417908,-0.08390970101759246,0.6408835247480347,1.0947496228936424,-1.8507509128699813,0.6213260271813463,-0.9417139190318923,-0.2057959004293647,0.3843983784822347,-0.4079564930035564,1.3625870754255578,-1.4926046542113531,-2.0071309535696082,0.45982323643909706,1.6179789327237368,-0.1760603295562015,-0.3018450686338044,-0.6907856019680995,1.3369689936542644,0.5301168217439138,1.553910585858624,0.44180981302308303,-0.8709446986631353,-1.557532310595815,-0.5805503550884212,-1.6218653094346172,0.12599220038642708,-2.356757933726484,-0.8032863342201816,-0.7897354773541401,-0.055516243708726896,-2.9331190989377482,-1.5363205878897204,-3.7488056246767365,-0.47234953790925,0.689466541024989,-0.03699845205871853,-0.8100422241949007,-0.35437228457138187,1.404798851732765,-1.1800765870710561,2.08037061852893,-0.4763800393787117,0.157700552108255,-0.4548193205085882,-0.37827980789552146,1.6198309104994417,-0.7604893687278171,1.1713576957650051,-1.1238416253651993,-0.6310497958720167,-1.156869777493577,0.04534243866426274,-1.333590216847906,-0.7269393713296075,-2.2380704767316173,-1.468382641150531,-1.4091998725092267,-1.1636465158521203,-0.0021729963136017105,-0.5940485068225071,-0.06513345625410268,-0.8427604896565488,-3.396309093864247,-2.38933841847529,-1.8951612190791267,-0.941128090724178,-0.3317486268753482,0.3307545280725693,-0.33112089866565325,-0.9476496562543646,1.174940318849198,0.08118703519451602,0.7782131493910689,-1.601272100679498,0.8134061349214672,-1.0304171000536066,-1.5830936461761582,-1.5567318537221209,-0.6284902478050504,-2.180873260217492,-0.652101997478788,0.6137390157609351,-0.477539655159257,-0.40851768518492265,-0.4779506775400903,1.1171901454712443,-0.24716205742002842,-1.174202049184546,0.358616881861529,-2.1643259156641923,-2.058550847783154,-1.5708498309081853,-2.2892006847154573,-0.258693331092489,0.18568111450824043,-1.2831334291674446,1.1031702322175694,1.3570732372727192,0.3404851307272547,0.04406249554677702,0.39277484707176574,-0.5536075190627661,-0.22971884957181501,0.31995651975261286,-0.9033211882588924,-0.620672958732517,1.1076393108521922,-1.0638209005703017,-1.6404399159762737,0.7909834790222615,-0.02381280478074248,-0.4792912912078506,-0.35066956928599347,0.4812796332086413,-0.0729500382502992,-0.7421444189645685,-0.8923696210724275,-1.2614878717685245,-0.690235913745503,0.13055323261278726,-0.5167857016408819,-0.7466010811505934,-0.3059459202238785,-0.2376086699143227,-0.6075750193593574,1.5840684820315436,1.643953034017622,-0.776471170012781,-0.1327784804081302,0.9625392692573975,0.7934246109351348,-0.7361089813401144,-0.5526282944923773,-0.03741746177307652,-1.0612900390968592,0.6332866221226402,-1.5032148628065427,-1.43524917053027,-2.076425117837945,-0.02690005674656039,-2.1742216012242865,-4.268430669012419,-2.8071571560797746,-0.6327258575356067,-0.5326466832918456,-0.42612298651638014,0.5740127376805061,-0.9111835097462058,2.3932963764775073,0.06509605172143258,-1.9550654684148057,-0.1682119478900954,-0.013295591199567214,0.4135008582797464,-0.3098168586143566,0.5066386612745468,-0.05265684116994416,-1.059690721803666,-1.2341096063764452,-0.11483751790553386,-1.1382715538998573,-0.5063311347700136,-0.8786616765835581,0.476561299349362,-0.8386106259063618,-2.185877620356592,0.18067194817609072,-1.7752756923052675,-2.616506114233119,-0.05503588815241526,-0.1445009993514051,-0.13630097955233517,-0.3215724038969601,-2.0288904147895948,0.23953140226949157,1.9484709783308738,0.054746124321886296,0.10563622464642528,0.2148130988553947,-0.25624801324710533,-0.35400459773870874,1.8716331891147087,1.8742580116348184,0.1550767022710534,-0.8504270118739982,-0.2972680694760543,-0.11629253447797391,-2.7896117277434325,-0.07676714827952683,-0.5738343643258598,-0.08268667520604504,0.7336265355969597,-1.274981254382644,-0.8775051403346683,-2.1052324918178744,-0.7247202904298929,-0.11007303340441056,-0.9920455629301937,1.808661078366019,1.5751757003944213,1.532090292247808,0.44066189455860544,1.7702542728928667,-1.4081479439020257,0.36948085469686553,0.3154824150493522,1.072040160218993,-0.5631244842592844,-1.2677649991992808,-0.4936935534436932,-0.5044798115898336,-0.5069964504423082,-0.5422485367191837,-2.686439154191616,0.01719880978277317,-0.9953165514903658,-0.3502963558204814,-2.4490638406678245,-1.0124937734099584,-2.881048842940192,-0.3374835451442428,-0.6952165458322526,2.275856066980707,0.8340136191990063,2.2649125359673166,1.8965729020214377,1.819996510332687,0.20568850630843638,1.9283933337948094,1.6446273148696664,1.4607693083030708,2.016812893340343,-0.5503040924627445,1.8415555801572834,2.061023059476259,1.2891773967332107,1.4337980899045926,-0.28312104703016644,-0.5327289818945097,0.14940617686045274,-1.0192682283068046,-0.9659057242508355,-1.1477747865403671,-2.3055474131603026,-1.1404920129392746,0.4353936825198287,1.2368830560170194,1.1701376098801484,0.7319361545906116,1.4806752139740282,0.011029693990756503,0.7074954706892062,2.0980677017755673,0.5164470296143517,2.205668723399147,2.323373464709597,1.7210194938749357,0.0278327198701567,2.4358611744930285,-0.4445014336349613,-0.465235585870908,1.117147342848275,1.1793950778659081,0.9757930280656544,0.20286910933720625,0.24392761929628592,0.8184741606021408,-1.4148969225017263,-1.050670560075224,-0.49066521129668716,0.32319850728119465,2.2622154139283874,-0.2629161859830978,1.6523708545581226,0.46352308620767324,1.0311630644494318,1.9935635119681725,0.4616472054998496,-3.0488484632684276,-3.5418446390221803,-1.7650478955912314,-0.1644387385338047,-0.5910422698009156,0.2953028032656789,0.009422177784366076,0.60337831770696,0.43613450557702416,0.7676787213727431,-1.5936251044071041,0.9091944345084804,3.554336264417612,-0.002906219874195236,-0.8222682263350454,-0.17789262512478485,1.941551554691441,0.22342538337964524,-0.34700344704911007,-2.7762548407748997,-0.651696214828087,-0.14462023838011343,1.0823833334680344,1.3056878377419887,0.26824867527499524,2.542880575065315,0.057994969776830996,1.8756273601333782,-0.1997857323896401,-0.2527449624529431,-1.2674423618846458,-1.1583979525283417,-3.6315295573630646,-2.686589906036826,1.3232192197765804,-1.2984154983846705,-1.3375496818549937,-3.4214035883474847,-2.560101162400459,-2.6720660595047536,0.851484183161639,-0.20044364157157235,-1.0125460869707452,0.8676900537609928,0.8273470781595503,-0.2639843279370575,-1.510681395892577,0.2647269277303916,0.01548793099059132,-0.6265473448570554,-0.34732487693488423,1.4412671302371511,2.0497772491799844,0.48594049868283135,1.332097078577699,3.2584783487946107,-0.18403756158812862,0.00445453861745948,1.6250351943177466,-0.11353269868934497,0.22221939798592555,-1.262154115533312,-4.193249654213263,0.010342377026439715,-0.8625209832688931,-1.526589903946615,-1.7109143689875645,-0.4473139507737417,0.7526215414749988,0.4692568973579228,-0.22864669554197475,-0.03762377689771799,-0.015315227960859993,0.7596137876855176,-1.0998190798931886,0.4033615513949487,1.526393979401886,0.8910142118179563,1.2797177926192445,0.27947013769878165,0.9713268088515808,0.8857909152313438,1.9405338136178394,1.7322028796525142,-0.548173279437864,-1.242164458572874,-1.7552274929505647,0.042276871481340426,0.6576399371627369,-0.377541674080786,-0.04047505520725614,1.4086250509958027,-1.0283735758536636,0.42201092335521084,-1.6094674559239452,1.9899516142720581,0.9485778057605123,0.31948964602811514,0.41595673456462956,1.2633565005471044,-1.5870261537043198,0.5754999858725985,1.2764214095856696,-0.04748761516865872,1.5981282453190262,1.715274014042259,1.7177056656086638,1.8431844300483085,1.1220868457515865,2.702129512553692,-0.7619967790759523,1.1579077948637244,-1.1712260674582642,-1.1697827884972034,-0.152717873052123,0.1369915591691941,0.8019106035203002,0.24862908485910903,1.638483588227981,-0.6709664251238407,-0.9439968013248163,-1.9489771545989774,0.3841177986880922,2.3882721223349894,-0.7955091746465937,-0.8391120335454517,0.71117737152435,-0.4270396529689375,1.7085828505389282,1.5746281215233018,-0.035811771033376794,0.10325103123401613,1.2802465050616352,2.0373712656992096,1.505468400640209,2.987421588998186,0.5327176118635472,-0.5231192327423677,-1.9768848732179325,0.031422056754494346,-0.683407150440114,-0.03392759839922307,1.229363648748581,0.27886288203873555,1.8997920038963425,1.4920899894917867,-1.498592805512563,-0.77161797642585,0.28689482594749227,1.7433450494768508,0.03801905979334147,0.4523527138271812,0.9030234916463505,0.1940450731346818,-0.5732629322425196,0.2888407209895399,1.3437291044964854,-0.1560682239332449,-1.3827788698457948,1.903094735949276,0.4748594208754701,2.4087946168829926,0.6380235583648416,-0.42115094855087887,0.07270431611589925,-1.2560806139778589,0.6801853116076715,-0.8683505218985963,-1.050318279939872,0.11640448646211958,2.7793965414890627,2.0485689556233484,1.00214048622671,1.5504373546514487,-0.4697320580984436,-0.13406140286339344,-0.3019989712908626,0.3135496626274996,-0.11673665016820511,-0.8255264505729532,0.3980502020216502,0.10647270178466905,-0.740063464534758,-0.427464574482184,-0.8683061124735035,-0.11860692856104836,-0.9074382717175629,2.524535800333683,2.904518714470572,1.988352702051916,-0.49876266529170654,-0.8433037262379375,-1.265834882648575,-1.7537242888648354,0.5260804298571133,-0.7541570013407233,-0.43952543767518415,2.2303580280653956,0.9713720300165383,0.1971442955921459,-0.2832350723257404,-1.0406235174015828,-0.7253618634465248,0.5323835275388655,1.0251060638090914,-2.205378587841879,2.2466290656938717,0.7283745984389149,-1.8379827749385547,-0.6617808441446252,0.20045429283281857,1.7141292113889413,-0.4002233410352168,0.3778559564925341,-1.2809408909930338,0.9918134773926127,1.053572010979854,-1.2582256573579695,-0.21438070077134655,-0.11632857798718528,0.9276431749483839,-1.8219001834058597,-0.3440611595193338,-1.9290845557003924,0.717531783675742,0.7252554564986986,0.0685640563630909,-1.3015004657859,-2.3585947585839557,-1.5064219150456233,0.10236197253380996,0.06774333999310826,-0.7650640861927612,-3.0366687924450404,-0.08755795144890316,0.06886179789761313,0.3274755646054417,-0.4639660346604947,-1.0740202546484785,-0.2999544489525079,0.3617890046625622,0.16366207390508755,-0.12123204615411913,0.6408098018225208,0.3462151950873678,-1.1763027392792396,-0.3002738566281713,0.06191641622731921,-0.32987068687500987,-2.535150396562328,-0.09429549439269459,-2.5171459484844267,-2.361395024606661,-1.1551771316511996,-2.2309719948791664,-0.2871515294082375,1.2496414094855666,-0.0970264448863086,-0.25363550836337806,-1.7481498497736423,0.3834599416354929,0.8026296871899062,-1.7648345621754775,-0.7235892219040431,-1.3261286215370827,-0.8293493018418556,-1.4345397486962894,-0.7039044768353894,-0.8844639957611321,-1.0124387487758488,0.24838128928168826,-1.0567617726146632,0.22032005522163545,-1.1022307352742977,-2.2084899098874975,-1.4459562406457844,-1.7419118158987086,-2.5447044466313455,-1.5150705573992198,-1.4354751125792942,-2.842626497569403,-0.20154138640281027,-1.224325753512328,-2.1106643890542625,-0.5108529367326378,-0.9194001765016255,0.843654025218186,0.434187996523354,-0.8174677614959517,0.2272944580554941,0.3267595279771985,-1.163634758703199,0.6530217054136925,-1.4869974999435716,-1.1598556031660345,-0.6967709407244007,0.07512992177455928,0.7934466506023986,0.5541906632709025,-1.3119392203623712,-0.42681458366296393,-2.5905724690569256,-1.7541324504499427,0.03606825217610172,-0.34544949865351476,-1.4098316787312417,-0.22656234486106483,-0.4118303782691945,0.19518941174788643,-2.1044699851397475,0.17176219062969633,0.3638693184907536,-1.4903736301207056,-0.9803675154361358,0.6836797884077745,-0.017684596679584913,1.7319237648844537,1.8723090042064292,0.363698647846227,0.44653234211082865,1.2731750670424598,1.4691372264182283,0.6632618254895785,-1.4939848297905767,0.18503261634064744,-0.8468137762017008,0.11868237502779129,-1.4307978466764815,-1.3846924435058146,-1.0652353183411731,-1.138553955923046,-0.5752334909480635,-1.7757078349544086,-0.04438429331832762,0.21784517882965043,-0.31870631792626736,-1.173483729458823,-1.4592934250955218,-0.6886291581594861,0.4332542607293235,-0.13059156210146847,-0.8058087646297512,-0.9428625649429546,0.4414826251546598,-0.010994659979388038,0.5317600825791485,-2.6453357791107606,1.0370557136660123,0.4612625679477039,-1.377297091637011,-1.0448648592971677,1.3284228413921613,-2.252210901449608,0.8711823587495555,-1.2430432996835945,-1.6071828607812702,-0.590669150609087,-0.3982081568164482,-1.5611297642330155,-1.0759159978507433,0.599940763405473,2.062127344320632,-1.5106017050154437,-0.870398332525869,-0.41683078294486514,0.03888148115186124,0.1665657421240046,-1.360633906460967,0.35535082466689927,-0.16923991134377792,-0.26251822798086993,-1.953795198073026,-1.968695724686201,-1.6248041844801306,1.9794238259381924,0.6656807746839154,-0.22488460897463283,0.13959335566659722,-0.04638626230865161,3.4745808903424553,-3.032591132997583,-0.42019820526582885,0.6988244548832997,0.8156620770033591,-0.7245288753003192,0.4659484575180151,-1.7369730369697647,0.3419051110524139,-1.8132549969611516,-1.3481219380911833,0.6988043899757046,-0.7159262629179547,-0.3003317515258826,-1.8560958195688066,-1.182689409577756,-0.19304282387541868,-0.8893517747921738,-1.3130465593935263,-1.3421949664355701,-1.2114335092176736,0.740626036625782,-0.47736844124836425,-0.9458951411159164,-0.034448465842445236,0.7557823319510022,-0.22585467443644186,0.6067895700728835,-0.04574954947473812,0.26380363271084045,0.5221230247972207,-1.0746904568319275,-0.21806336421106062,-0.5202186904004322,-0.1362153891862082,0.5204764602164395,-1.176632328926296,-1.1198515395052497,-1.6790889822245474,-2.181422095634056,0.13595135932125404,-0.7333163785671342,-0.18290695408128396,1.1117383831331278,-1.0251517589960173,-0.025659631960788576,-1.6085084884639906,-2.062857454018754,0.5409336978496191,-1.3233645218883137,1.2656734311022981,-0.6752915939392442,1.856353390559028,-0.20234392331122858,0.650486909264044,1.2678529773958358,0.8341874562976974,-0.8245819679216464,-1.481611719253283,-0.735513321120783,0.02558605611517203,-1.3605394247458722,0.05628442912875119,-0.8912890411846347,-0.5630257358608558,-0.3429538553239475,-1.476091850067006,0.3272952576831059,1.166393412478523,-0.9835314827577432,1.585912056644755,1.6751333342411636,-0.0555838710409407,1.9861298181576346,-0.4176477613409417,0.07419019343347076,-1.020695086750175,-0.5183235235769449,-0.1818366828904871,1.4522529511142275,0.8345227335974396,1.434873723217729,0.5086310026283626,-0.08506269387595555,0.12485508825312054,-0.4772804957949994,-0.7032023908306044,-1.004395619364069,-0.9820388867756122,0.0348942373020993,0.3743970675052912,0.2611170911612315,1.3924748324623988,-1.1810750145695184,-0.0910604384062642,0.11132654058356609,0.046536014188153556,-1.21596034049343,-0.14406259869242818,-1.0216648290693446,-0.2865163742049695,1.0569657894893338,-2.1933634795271075,-0.6584158687283801,1.0979558567522785,0.4115841613709752,0.49476130065230917,0.0629132491085179,2.294489432500553,-0.14138226745773388,0.20368528479216608,-0.00845344870319497,-0.19050192957669682,-0.21132598725377635,-0.9291417861447339,0.3515015555279946,0.8268187259423097,1.3390173080091297,-0.4343102415864797,0.010966381830952105,-0.9036825864113903,-0.7094575653315566,0.35285905392146305,-0.9944702170369978,-0.6813241317412403,0.02416567129457389,-0.31636744377718423,-0.6907557252346179,0.7505584534272148,0.3791688493820455,0.699659074803137,0.9583578754505202,-0.15282555090709463,0.08920270977510673,-0.01947567880459693,0.5910603426313,0.07827151188476456,1.3849811045368925,-0.8026440223865803,0.7337503758785592,1.3808167900535127,-0.28082956941804893,0.23617555759660885,-0.5367816443468323,0.05987305951945817,1.3908872605135483,-1.9885118205322612,0.7290701775772319,0.40390252199442933,-0.6765195696853954,0.20656660132350305,-0.07860230611097635,-0.06918963149106105,0.2924339385408831,-1.317827330364985,0.7612875057602245,-0.3362440780751138,-0.33385762367466326,1.8233006711776911,-1.168915567134361,0.39514270071087826,-0.0766352298503074,0.501933575886976,-1.1544080627068047,0.4522951827738958,0.12491577833691514,-0.2703185045577382,1.5600838084743414,-0.5518054957121473,0.33463524086465257,-0.9207566825122832,-2.387056314472591,-0.8409276670528317,0.8556233699432959,1.8351775247306812,0.38787112314909783,-0.8143606797353566,-0.7453221309664102,1.5373374242840108,-0.35117305820888006,0.2405117535481735,0.8494045774604673,-2.566224994618519,1.3961529034184614,0.6905166915228821,2.148209063638939,1.790754781363785,-0.9199107773171805,1.4342805989187737,-2.6799447602774076,-2.4597707990428193,-1.1860571732684275,1.1505292139018337,-0.04948256664255486,-0.18147313337330984,2.1106544508099967,0.7836279953425612,-1.110655714107612,-1.2061159017846368,-0.38288942113128877,1.1787650351929313,-1.7120543934602295,-0.33935440393618294,1.343992947652592,0.24329871485178645,-0.023543175335643998,-1.750215051293115,1.4793208021298367,2.636743288279458,0.7679744051244395,3.6581841333090916,3.856744275320228,3.0521144626928205,2.570342898463611,1.0696023893958226,0.3052910518069201,-2.561696469138685,-2.661767949853859,-1.536634950298387,-1.5284513379295002,-0.6834126571297946,-0.40184432503703255,0.49234444327220356,-1.521286462129776,0.08132210048809374,0.4641194212380632,1.0465746580671949,-0.2960392862677116,2.317670231193459,1.5834774618290919,-0.05504433620197348,-2.2851466040286406,-0.3717778212879981,-1.215250530576518,-0.6004251556498642,0.8200796593242032,1.764793909458723,1.1885751198918055,1.6141581258111937,2.1568637343823243,2.1987440923149353,1.7526568699255278,1.3471276511062165,3.0906975978537976,1.2267413613218032,1.055897681886975,-0.2366956447096477,0.41778592077789256,-0.7429695587446505,0.113223888244735,-0.9768399862055421,1.2211805495591619,-2.1870586069736557,-0.14258196325805647,-0.18072957275436757,0.2438658067058147,-0.7535906014501159,-1.098010187088894,-1.0317960158514612,-0.13532821082581198,0.1797772635663696,-0.45227911042392627,0.207108935772422,0.10566720583789797,-0.05058128940066311,1.8488875738589792,1.368030694942707,0.08663327857242643,-1.5521041810490468,-0.3131221513114938,0.6816348129183872,1.0229788289338189,1.130690626447587,-1.3051313016807586,1.406294999625069,0.7943681733670837,-0.4953300989722716,0.2319895422281248,1.782362055442595,0.5838233376612462,-0.016392179532829818,-0.7075093420103779,0.7403261862419313,0.16933097395068897,-0.4523925193839329,-0.5548803806076752,-0.2343152191842162,1.062704045026688,-1.4634528240082738,1.678578222785662,-2.1898362258738,0.7588384595334331,-2.145017200978287,1.7230655589135633,-0.27744999500203343,0.9194609525193116,-0.10906435348289442,-1.1228797667306991,0.2854542238680058,0.9491524396245596,0.2937653895120584,1.4577068339222004,1.1971266074738887,0.6284923444337526,3.862235343299692,1.1743238376948943,0.7122125737585577,-0.7909053727499508,-0.42766961023937083,-1.2366932622875533,0.3920367487505668,1.3239867434820032,-1.5318959341722782,-0.5191994759277104,-0.40957921759277344,1.0883537332866253,-1.282686247994299,-1.3317477658891497,-0.6975246719938046,-0.7415689891368199,0.5656342519500219,1.8352674790587116,-0.2480984780500967,1.3482026846777064,0.786781054735147,-1.2712897236758312,0.13743740630544451,1.3189940221417156,-0.865529312313156,1.0192473113434621,1.527992138766022,2.0151950165191215,2.6741971696652618,1.7760410588399875,-0.18763935995961994,0.8235497275538133,-0.6085474563569383,-0.5367795404783782,-1.7742639811976364,0.48607598380655753,-1.403133149009915,0.29296423232937935,-0.35419050247012046,0.004191864848090915,-0.1918400798451603,1.4058155540012522,-1.2714352862854699,-1.1917573170524784,-2.5779436947193437,0.1318368845581002,-0.7277068691359955,1.0667268693073937,-0.7778900820927647,-0.9043129872331266,-1.3227065580901285,0.4268970400799909,0.6310039082680933,2.1698022719870953,0.0605628697372114,2.1537445638130106,2.9316510300395295,3.283595182168271,3.442502476874596,-1.698616636428966,0.5073286019096526,0.5605370740764883,-0.03800716812431628,-2.0390488051925537,2.0244567184325346,-0.9650344714011494,1.396050826475811,0.6955277631612108,0.7387408468304653,-0.7891802697648629,-1.273280889734358,-0.3129087067644925,0.11288339497235077,-1.124883501349927,1.50238124760561,-1.0107010384668331,-0.8081349367574524,-0.15222154808395041,-2.356992711122422,-2.531110106069253,1.3416530273556035,0.9453714098925613,0.8659451426515643,6.180563391798813,6.124883744257833,4.569017745167819,1.0125784231642376,0.18454932474783295,-0.767731417965882,1.423805224510842,0.28546753853669876,-0.011916012242323342,-0.06768526931427106,0.22310709789108002,-0.7740556887881826,-2.871635211917777,-2.634065991072826,-2.1491414480904316,-0.785476408355425,-2.059668723092426,-2.031404646323123,1.8418890802875925,2.086003631113081,-4.144062031524112,-2.984764432670894,-3.274348649877673,-0.468336532691294,-1.1577209421964065,-1.2215306604098894,-2.4381160612525705,-1.2600957215813042,2.94325755620268,3.7859186123211153,2.535046381218922,0.7246770161628722,0.009489739921224451,0.49574451121758945,-0.30938700784085266,1.6912730427848053,0.3442488139020408,-2.2722145361891157,-2.1404916125105102,-2.4500585939460073,-2.008403904997715,-1.911416654931534,-1.081167650239924,-0.08530261272410956,-1.0275512388196695,-0.6740638753667361,4.868148595627201,1.5451185978834696,-1.1853804772932544,-4.316261671022085,-3.6083739673141677,-4.1116758686612505,-2.6691003315565407,-1.0313358261519987,-0.8629823508103467,-2.5852978297014495,-1.0304623922053242,1.7791882121270688,-1.020769138338645,0.9089391601349485,0.04932502169681747,-0.3273417368715996,0.5269860079645572,0.3188532565073552,-0.08534567079983582,-1.5852617180037831,0.3937955045907064,-2.322460590011251,0.3311911357736927,-0.20931213004047802,0.5881929014688225,-0.4383350410475239,0.48664333250723796,2.705697093768745,3.708908753506004,-0.7406377053198904,-2.203588715898468,-2.054064712443775,-2.822016121390837,-0.1722062686607733,-3.6005012520764557,-1.6261072050178533,-3.57506131830758,-1.4979934856060697,-0.4773031954456509,1.4015053515178746,2.3968342668125984,-0.09702185689268877,-0.8283574405513469,2.437719108359419,-0.9977816702625257,0.13122007917081563,-1.0590880696302158,-2.1452864343169344,-2.104878533806716,0.6382137241122883,-0.3165293475642205,-0.6601809128492012,-0.3767877606937701,0.7476479069721828,-1.6811654008745502,2.8822127027326214,1.811313739870384,1.77442786427955,-1.967549217907595,-3.2713100867402676,-0.33618316067416015,-2.7524319314172807,-2.859218407613653,-1.0325105492323283,-2.843788855390098,-3.1363927401060034,0.997619809058373,1.9448362792671339,-0.5370671762363847,1.4441434021832529,-0.30368873176501593,1.7791238761716126,-1.1575587742446953,-0.10666448329729726,2.4780976446118084,-1.2857592637689286,-0.27319054835235196,-0.7681307807902896,0.03796343197303531,-1.5546340852130833,0.3208999631016044,-1.510336279388692,-1.3891630512283655,3.409074049624729,2.6579030442768277,0.07981214262456596,-2.931517196598498,-3.7590190185741807,-2.4871632282106098,-2.5089955589612964,-2.334961523846228,-2.245066569494592,-1.595706491872092,-2.443669812169088,1.5629597080486786,1.426471309190578,0.14497765606732912,0.089622208121479,-0.2632554134075801,1.2157173653529303,0.30184426556670924,1.9234649033955755,1.2030756230429154,-0.09175245583849478,1.2473908082134662,0.374394389123151,-2.0996937774642457,-1.5382413462722617,0.43804207507163007,-0.04196625817012257,0.3810125399664187,1.1247197799681856,2.94812136006813,-0.439916715454438,-2.672582280567387,-1.962391167574329,-3.9859519521178766,-1.118694928461977,-0.592681700300681,-1.8103028404532842,-2.584446096191278,0.5402842941591016,3.9725579104290594,-1.246514414837831,-1.3788279386140911,-0.8210467557933553,0.4509091230069019,1.7904020635796383,-0.7085580768504892,-2.2572061070688685,0.3192640509112134,-1.0212892109334226,2.1532945135378565,0.4389993206596995,-2.977320373529603,-1.2794954042359907,1.0373065921847984,1.7660976288696781,-1.2166311646339971,0.4113710770934189,-2.2904015324549336,-1.263487005971867,-3.569975663902276,-1.6317210366805963,-1.2128891985282881,-2.4169750043961615,-0.1528330215244974,0.27740741378682654,0.40059345563445653,1.4150481157890047,2.451187230908137,2.172276101286742,0.6396601873403686,-0.7563493652766091,0.16699431195029282,1.6328504782244246,0.8605427855357545,0.11544768735367247,1.5198349544522103,0.6613290459186459,-0.10970520845429621,3.016315514742002,1.5599391564074345,-0.2166494542238561,2.4678394971695354,-1.827746407243686,-0.30673063976181325,-0.868794899302192,2.3625490650392114,-0.36160853894927564,-1.8226627604785657,0.7486274872927824,1.902409484273825,-0.7002906759548116,0.7999755866125352,-0.26885511671316203,1.8030387717425214,3.492011315704942,3.3862811574773737,2.275242728516703,-0.41583780611961524,1.2026722540795716,0.04101301947447299,-0.07449308529054997,-0.12399968525975838,-0.004803561961210876,-1.2590719756308093,0.5829589623665188,2.3505974867332835,3.707605608523717,2.8780455030754175,4.21816016847587,6.49843498155656,2.6242007773170553,1.16569548908708,0.4065280261734957,0.6745988831409933,0.9088786019217969,-0.46685438975784166,0.7035563825105756,1.301204083633266,2.1728762001794615,2.3645154949961045,1.814198956475317,3.0616000779839236,5.357355279732736,3.165436007342769,1.3528160120395056,-0.2571867871474774,-1.7866065116218466,-1.2435691437841303,0.37241498913190535,-0.6782435456751075,2.9612922628241205,0.6386813750334625,1.7929532816138942,4.489088374074473,4.693170679126471,5.896635729967409,3.164910318434291,3.7305173563524696,5.226480698619216,3.5234966677356963,1.6124332973509752,1.0319840141953776,1.4636678790098938,2.709228294717747,1.938822664971766,1.6511935902551482,2.4249757931382745,3.001013355632015,4.607684396355059,1.5111481477872892,3.584590040828194,2.9720140289661345,0.4774918072836972,1.0663754304996391,0.9232855597643029,-0.3249240119640114,0.8517239057928183,0.6814263516051384,1.3353452562591868,1.8521128575378683,2.5016109803147977,3.123193027559296,6.200956908512284,2.8912439085783306,0.36519088671673844,2.5743153401479,3.9708289744321417,1.7667354151949182,3.6203044524645227,5.072575091527659,2.040385062307613,4.346251235406501,-1.0920219177142745,3.293292165884067,3.987511262586789,3.09145755978583,5.94627460239133,1.1666217310188132,3.144288890417429,0.6292420627621537,0.5543742430854132,-0.07561911619929586,0.8788494439645532,-1.7547264070876365,-1.7786338280085021,-0.43390657728905246,-0.48162829489920317,1.9462263135362585,1.4496239129160122,2.2791738269043886,2.9231364909083912,2.5115768582600593,1.1164654448963018,-0.6930052618519347,0.3648742653482195,2.53649479417892,2.749406701548978,4.907984425473779,0.7362090179118327,2.5508167786702263,-0.03051146213331149,1.4541813796945173,0.856870780821169,2.371017373988453,2.454236715270822,2.58652395228343,0.4876280048470575,1.2007467404852872,-0.1233735863879776,-0.18206878574601892,2.0079588803249235,-0.5921126595138476,-1.268424769599683,-0.6076692780031924,-0.27252608801972067,1.2857014956946136,0.9007002204182457,0.3492263151849368,0.8776747707511572,0.08928055514543376,-0.2176918357064383,3.8132759726743735,1.144323819839568,2.746031580461193,1.4361238247602672,1.1690430790715185,2.1914912448168247,4.550621119945172,3.8784631033839463,2.054743158959188,0.4966889163630638,-0.7884526444165246,1.074753508779542,2.5993022715332637,-0.2813942596597601,0.13924980846800936,1.4346675621155487,0.4217514126229185,-0.4911660796128189,0.7122276456173602,-1.8292467500264953,0.4744431435127374,0.8226614378172884,-0.5210339888924085,-1.4379217350033795,-1.0361914795735823,-0.111603275645928,0.014408713306366698,0.6785201493769285,0.4417887557958214,-0.1272834241692121,1.6647703831053626,1.2662064506968411,2.771998010171329,3.2090837525124454,1.6518494444828213,3.7173581671504627,2.0599188473165655,0.6638327424325772,0.3351236442799206,0.2538265306549862,-0.8339956748245451,-0.4005446785491455,-0.42589496567248614,-1.062620158921939,0.21599375403416377,0.8502590131263611,-0.26463815431904764,1.1458771642441254,-0.3754436186090608,1.249221687185408,-1.2693950165386032,-0.6738982114432646,-2.1044777635525524,-1.954469547297095,-2.159418938984164,-0.9258251871263443,1.029075893313441,1.4114238090984008,0.7063620067620375,-0.48027194240638876,0.6651757254457047,-0.3399548277586299,1.5251156869404934,1.709342231132404,2.1454077194945023,0.9858548095344317,0.8627000651386993,-2.9055277589274415,-1.4202847207509715,-1.2949898267363047,0.6994738095958913,2.0798152758755886,-0.4577158649823194,-0.06311587822192387,0.8360637665519007,-0.9687839889782628,-0.4915460640945358,0.6949201129216547,-0.10358503847809096,1.1986399566422037,-1.2665343311749444,-1.4595167591333813,-1.1670150911408763,-1.372650304042361,-2.1089392935377034,-1.760426755980503,-0.8874454434052118,-1.5002347647803687,-1.2636888868952239,-2.2799516540336735,-0.1545541818814269,-0.6203481708276981,-0.18155142647923295,-0.22263686395090101,-0.315698268771078,-0.4046825349601273,-1.5116300942492609,-0.9773114173300445,1.055215948192802,0.3522960106331223,0.07857925224189008,-0.8799138750231889,-0.7184723165056275,0.042700544986755455,-0.30367027113113193,0.8381025355798947,0.8757995330006647,-0.8234489261761503,0.34826617330497256,-1.2019531075434233,0.763007492911563,0.26188674609949786,-1.1657320372321065,-0.9996098204715725,0.38402255847734607,2.119850935857334,0.3625808349308086,-0.1555436342964094,-2.232678207887757,-1.0823916548853645,0.20053938459065385,-0.3793085990821119,0.3391144073748516,-0.7967045075239988,-1.7985695473164687,0.027315815244106936,0.2982959861674018,-0.20314465008397792,0.8419587283983335,-0.6043770266455231,0.3190570745199451,1.008604473928925,0.3437546762396483,0.42359443824008564,0.1359788261190611,-0.21269873783451704,0.15478207024665197,-0.7251860366736388,-1.0076637232218693,0.9684222979944761,1.8037212692538787,0.5718571328796673,-0.24893243439700327,1.2660849544707555,-0.41069653259959726,-0.5957217307855603,-0.8499708331195316,-0.7316907796733554,-0.42351518977000735,0.14201666398333795,0.9559055016342886,-0.2042076871617622,0.1401781366751955,0.6426499338276824,0.750663949173113,0.6625592788750606,0.12979782450086208,1.2376606714626135,1.6930143525348502,0.8462729172290694,-0.12457658861663473,0.8649047369710429,-0.7993337382576191,0.3251643773447694,-2.0578574976791306,-1.3081480160242185,-0.44441487765081955,-1.1004717891673967,-0.5597384424466928,-1.3040417104437219,0.2262651868224446,0.205803047648017,-0.9559971667690627,-0.43608449616553263,1.2672207860068851,-0.06589698223941967,1.29922052457182,0.2442886963798862,0.595099301458337,0.001892503150736511,-0.27847167383575266,-1.0151661419736175,0.7955994700128189,1.7834811991787154,-0.9660872023793757,0.9730972613499508,-0.1688823808618554,-0.9940416520331355,0.5341903843054293,-0.4983820188454059,1.9140318906090803,-0.07232721431157878,-0.9477145622242471,0.053239570121101386,0.3136063718468801,2.9072473804502494,1.0489001292276918,0.3173442514245612,0.07881363633708291,-0.5980148422013617,0.40140675459432124,-0.7105812589608945,0.7206314591401038,0.9013089708224795,0.08365343544468527,-0.5049047953025618,0.5743073848578133,-0.2908188902918446,1.03988045775475,-1.0058237664609015,-1.3778470010040245,0.31695041993769557,0.8678362303213052,-1.824726878990628,0.9970227208139303,1.685236121644532,2.6630639117252977,-0.0848669032262914,1.40710580286049,-1.089080151245894,-2.574518547539781,-0.004844643295386809,1.5589377166951393,0.348030448210278,-2.281697582386358,-1.3907336235801628,-0.3360112398774638,-1.3121791060834362,0.5474827620757391,1.3644986373024743,0.3767033732671118,0.5945493859657828,1.6515746564999818,2.5741268223622855,1.7972777370182242,1.5646330618883666,-0.2674569783533737,0.2855014510187972,-1.704363792863372,0.47835195789091894,-0.977971047601111,-1.1244118736555033,-0.09872165499416435,-0.9234065016807831,0.07822048330450107,0.9906931239283967,1.0638971233522494,1.260295563332893,-0.34716816612764484,0.06830517707886145,0.44455837770698764,0.9175385095529726,-1.2956975109651996,-2.163786400245725,-2.8982410553494637,-1.9313831730535578,-2.6332683336752654,-0.9834860474801925,-0.18345227077908688,1.2754104532501402,1.5204274581688852,2.752066952904364,2.982795399255822,1.2554161034958646,1.0281536263165887,1.4624115393939385,-0.023937522923148723,1.3223055853180228,-0.5539268341924267,-1.0292776278908944,-0.5164710686343423,0.4115109841657257,-1.807240470797273,-0.24634831397651735,-0.7906869324122873,-1.1359276195419237,-1.3078724518510048,-1.041017542120016,0.12861378168624324,-0.5551829117299644,0.2015708150078241,-1.617020073413562,-0.9468651281218264,-1.0380127806956194,-1.4147864329265492,-2.4684288976915223,0.1007786489741918,0.11551690684456306,0.051398435899544515,0.13268622237543004,-1.0630832513568904,0.8312103133133006,-0.5500495113806677,3.456777604442679,-0.49408236518502463,1.9130316445639848,-0.48904462742924876,-0.8483567045036325,1.0317479971734522,-0.827466326117382,-0.31140043357902875,0.6758763259492382,-0.36049256129189267,-1.2923822793251585,2.0773039633010235,2.1964242662889473,0.9862779524565047,-0.6093510313111448,1.2744112962446128,-2.0599734847196447,-1.5402677780321539,-1.9643698732447605,-2.69361734235586,-3.4888105101736384,-2.3635772500529466,-3.678084480033392,-2.5909591736257607,-2.891454985997821,-1.2171452485473684,-0.8940053996493531,0.5467450245284229,2.1785321342549326,3.4340979818275783,2.58229094160616,0.9723751874262135,1.5787866046827788,0.3290312970036468,1.3765411793928364,-1.1659487724737112,0.7999629907812078,1.4669473774471644,0.7367178148163656,0.2949943444525283,1.295074155469464,1.6423228695153567,-0.888311938026533,-1.895647784993219,-1.3085428245377175,-2.9661895030046592,-4.796488902794538,-4.193368130429108,-2.1136073995799167,-2.5998305156259023,-3.5676195170912317,-1.4932931384737749,-2.41203423401948,-0.0708655811321006,-2.3390721186040024,-1.924322530396477,1.6077570780235422,2.3205684434224776,1.1459974304706133,0.9389183892506735,0.1655200159931588,-0.9204003873932675,-1.1558473405895073,1.491209566506689,0.422141895500119,0.2549030116806045,0.5628944543208543,1.7874306384373952,1.974708703392608,1.2206701131653959,0.7082248175249242,-0.3080242891652691,-0.7165937308061868,-1.9704029814401829,-1.8815176585076325,-4.534882259056698,-5.443693995308349,-3.8372730421036665,-2.3517554303306087,-1.5206525576880925,-1.3261879326434292,-1.3741835973656298,0.5841237523159116,0.2603739938878612,-0.24256682837582913,0.9975998456357668,0.9961640688810611,3.369847059680454,-0.4231764413985117,0.3808753554866162,0.3415864493564477,-0.950437622859162,0.5601925012608501,0.1946333014895962,1.3381368668383071,2.578924039143388,-0.521254629461205,0.673750598479129,-0.2617095688851704,-0.5572439903660391,-0.6039632112252642,-1.2907751523878381,-0.8603102695247951,-3.439327062891952,-5.691021870630482,-3.902473139586682,-2.2929891690608755,-0.08044881860145195,-1.6643864673864606,0.33465501166323486,-0.05104895725668129,1.1686207550524186,0.5087721935823493,2.2171454796631203,0.2539464978965815,2.8410416048915423,0.48313981828802954,0.9300895418970865,0.4794649452581421,-0.6553682655894938,-0.6962339480073556,1.1385719852309555,1.1111949923983644,1.2282199618502847,-0.18047299947365836,-0.309756912319953,-0.5257025250876612,1.2265933725319285,1.4048815396124013,0.5499841651907712,1.5213935831084358,-3.391681027819199,-2.185953747426119,1.2280804665916871,3.1084385498161753,0.3261707645482563,0.9915961115829535,0.46901810900537466,-1.5602252738992788,-1.4507862785258947,0.0587293944676389,-0.4823699564948927,0.5026582075880696,0.9496673452046765,0.9949867760348311,-0.01593747429967968,-0.3393222796473217,0.4037843591578079,-0.39008394606695257,-0.5944903761437194,-1.6535105975091617,-0.8524197609485193,-1.701069659422353,2.6593813144866507,0.30575444453758244,2.1037234312695277,2.6162380686200346,2.5488513475895664,3.9443762271215004,1.0049237529543655,-0.1771577834723781,1.662851058121777,-0.48170333259002723,0.48657995497324424,-2.9387518613240577,0.8576762964392918,-2.292032044735632,-1.6713242434413227,-2.1535581245794893,-1.2239755069656928,-1.4719206848584017,-1.7716480977405533,-1.024212759630711,0.08353534232151835,0.7305211309135522,0.10902164616571794,0.411227081639145,1.2279688649501734,-0.6732720844822531,-2.5491740007863815,0.20453521237046468,2.5191018032200647,0.9114025818245679,0.8332470318587798,3.168657207140813,3.9149593385217236,6.704508001790372,3.1409188754306823,-3.4364102149355493,-0.6845762419805531,-0.5216363432374217,-2.155402994857585,-0.2371511731839642,-0.32361930029707037,-1.0673170272731665,-1.8206595363011273,2.3635415232599684,-0.09409514119304427,0.6678332791824483,-0.6691581681874094,-0.5916966626047402,-1.9394281788771057,1.7998939686240538,-0.15386283151847932,0.22867922560645945,1.757713551377045,-1.0459124560915867,1.8743683981339418,2.389089560689026,0.11662092664467859,2.2525379300049537,1.873715925912519,1.3401942232190132,3.107002293100629,4.442698554936082,-1.653802569020612,-3.7269115113575095,2.5891552121088126,-0.1551236426064522,-0.46250959922928364,-1.0194693279708564,-0.7157510827846821,0.6498429022862959,-0.7628629903739966,0.42917335251278055,1.8385543513824525,-0.23953150968744835,0.6739670117832393,-1.2039632375530187,-0.3936441922434047,0.2897204385096664,-1.0767608573701422,-1.0382712377576298,-0.6227399166541049,0.010701187760091827,1.5820275958134993,0.614650415547662,-0.768021573463604,-0.6886841505245671,2.014423541446726,1.8345466256305492,2.297216951784464,2.1353223978006373,-2.0551817370292937,-0.9327374305685234,-0.01993206377047525,0.7698861556004615,2.1310432598691,0.2705832883343067,2.148007417616062,-0.027573725036517054,0.5818712234251209,0.1587089709687648,2.3944150869452945,1.6326126786933646,-0.3089602878640508,0.836421332703481,0.8756556871845432,0.6314981129670603,-0.6409281070514683,0.03281169069372737,-0.5896110114652322,0.016792230160377317,-0.034532472977929114,0.089628985846973,1.760092227541169,2.1343768700570696,3.025402085747824,0.6265508323809843,2.1579854665808895,1.486909646544438,0.5928026277296429,-0.003514695605125793,-0.943479146051228,0.45227095165440345,1.3529711150118175,-0.20826012648967188,0.47393727828862714,0.6866307824798145,2.2320451758436,2.1721453943651983,0.9594748782476143,-2.3710412271363372,-0.5843082971719342,-0.3955554653447398,-0.9050021513317091,1.104794364460805,0.22641583250621716,0.42322807243820354,1.102452062585965,-0.8041416116685403,-0.872883470344554,2.4919435651926856,-0.02258224925484198,1.3267709970356782,-0.30379217941305137,-0.04204777523220307,-0.3593146251059523,-0.13063607185651885,0.3350874245170852,1.4945842280844999,1.6110890006911798,0.7181594713599329,0.38151171099289444,0.774361471531582,1.8142607324853361,1.6734380349371218,3.420805069804354,0.826629482656575,-1.886393175883968,-0.08978883136473342,-2.0702629690697867,1.2351653758584822,0.17050987284565136,-0.5416244299241182,-1.5703704959890192,-0.845532284776128,-0.06368376081453543,-0.18926531165603505,-0.5651886904715191,0.8691150191387221,1.8053768117623028,0.08705721812171344,1.0510298145316204,0.26566464939626144,-1.7108817858720502,-0.43153553771850206,0.008310090728631899,2.527751789183475,0.8338315197474828,0.7912467997865851,-0.02790337815580932,-0.46742702226406296,0.15402159011576852,-0.656448719828491,-0.41566896788970675,-0.3970772934179239,0.41716638265011186,1.2450193717620996,-1.1582945950107415,-0.8774783298697136,0.18575665662118498,0.41270107579918086,-0.22562554884050467,-0.11529370015992121,-1.4008623034070526,-0.7859982121549997,1.8915585691363492,1.1533261827746764,1.2732501914198076,2.0230281602591553,-0.40337655890982355,-1.433873172654983,0.6761007939835157,2.0028995651656536,1.7008612550932884,0.02542823223317335,0.9567265587327523,-0.23658573616916279,0.14320070203315285,-0.010806161272993843,0.06266044254591574,0.3461896594036458,0.31552747002490306,-0.7433676041255496,1.621166625813763,-2.238475040156113,-0.6393700378707616,-0.5814228243978956,0.013893605502131893,-0.42655415225038945,0.6967685520352891,-0.2995189439397354,0.8232480971629994,0.403233724391649,-0.6770526460921678,-1.92593726351085,-0.31784556701227756,-1.9713315814720984,0.7460846621033956,0.01424604488292691,0.1013082901067925,-1.1763677061498976,0.9208692008031951,-0.1881301501038116,1.7799086389418988,0.1606502620894517,0.7682312443473517,-0.2245013806549325,0.2042140579733506,-0.013302530493786007,-1.5322620436458776,-0.039533382756080974,0.3192147517061885,-0.9056401180497412,-0.706214728377071,-1.024732074039104,-0.07785349139114282,-1.8221147648478975,0.19361688688179954,-0.18050678452421834,1.4434140795529622,-1.4525469951122538,0.016864495812744264,-0.8058346101901451,-1.5453331439130815,-2.0738776796591085,0.3352279705131162,0.3719384830715972,1.4414400170655763,0.9793693730864276,-0.2306365442601837,-0.32295363963090035,-0.8017379665660074,1.5297927359487695,-0.5872579895741722,0.9369177241205918,-1.79936545315653,-1.0571164060654732,-0.6455984540916649,-4.152712179329814,-1.958325463485903,-1.1009346520757186,-1.0621201017552995,0.5167977754291452,-2.075914388164991,-0.8467800770645149,0.7398339243586318,1.0599822237580596,-1.1068432950861173,-0.26191218167268754,-0.8942050512787114,-0.31985955517998477,-3.027816800917532,-0.8171605617018491,0.33563651217878476,1.1677134142933117,0.024931177069086347,1.8366041226886722,2.5871397742034032,1.0926426354991015,0.6715268051441031,0.7007751921842921,3.552081624687681,0.0664652210602652,0.5454393601587723,0.9363154638423218,-1.8891977600969752,-0.8515766081167112,-0.33376724752917863,-0.7812768083935636,-0.3824710819354722,1.3987377506298753,0.39274791259726227,-0.23028659947705354,0.5231803350949562,-0.0023679680899476438,0.9450529598149622,0.6459819678127325,-1.9656111701115582,-3.3608114886142104,-2.7908884764913005,-1.594878944165533,-1.0232259493964322,0.023171668622451444,-0.4599773824249662,-0.7073682386320806,2.117831967665378,-0.19119778416300204,2.038525543175439,-0.8650731642251817,1.1878271337959274,0.952204896161311,2.114611358483099,-1.4813734443145963,0.2899064858673395,-1.2951160462311875,-1.1659137915497524,0.1637320074041294,0.6595025111443742,-0.06276020426134453,1.9733893866003946,-0.7215979646273196,-0.02876844262232119,0.38585294062143327,0.15711935404147992,-0.23870262643703577,-1.49953693621127,0.10461652998993023,-0.4304955355842647,-1.204922199337743,-0.7511901579984678,-0.573835718215574,0.321606350105818,-2.2799198019341405,-2.0658784361778197,-0.9627128226797697,-0.10901347852978982,-0.1633426911904577,0.8912789554541812,-0.19818216085881346,-1.0420847044730563,0.5269286113378592,0.2648531153102395,-2.0415734513565247,1.3217600979183466,-1.514591503727429,0.9472090623944056,0.5223123627189807,-1.7030940919182562,0.3720991455371958,0.7692809560034323,-0.7627642624282055,2.184822279543953,-0.7646149485370325,0.8362305912619467,-0.5920697481487316,0.5927969711595339,-2.636118243923492,-2.712958032977555,-1.524176698284108,0.6450311147312027,-1.0352407162377628,-1.4820724972466108,-2.5095827874157264,-1.207033072118372,-2.5533090038812567,-1.5219762836986963,-2.291819554910333,-1.7568868291833324,-1.0600256100484327,-1.0657411132510275,-1.153455533374494,0.45338186199423947,-0.8071086670491694,0.41817836681466075,-1.2948995089099593,1.8812381678261483,-0.10428630478857133,0.02539030291562507,-0.4854512522784213,1.147644514704843,0.06042351098001651,0.6844642868422663,-0.4371028875803872,-0.39903880951497106,-3.5032552594035744,-2.3941301859722395,-3.4457954254819634,-1.7271942315564506,-2.611712627179021,-1.691808137975857,-1.858991880641868,-0.6666198425697176,-1.9746355797105775,-1.311003469142117,-3.0316894653154702,-1.7643353759881353,-2.1467748012344465,-0.5167447145993861,-1.4603525957970536,1.0270035168629155,-0.16515207566998794,0.17382955017667925,-1.2355134615697132,-0.5052347330481575,1.6691447041429999,2.1466242658476093,-0.6132986723750121,-0.6224435893486547,1.9284474478521154,0.9338117070564826,1.9858629461620618,-0.993279883282081,-1.3972082419337621,-3.0097118618660597,-1.1982184537245193,-2.3949087681045977,-3.6169895444600395,-2.3649877350545774,-3.8940095492378477,-1.5108499219279332,-3.3595770361667507,-3.658135839140689,-2.8974893165566744,-0.6324245253756529,-1.4052345164140247,-1.7639220260259096,-0.6181008070841407,-1.304808192909334,0.20014763112343434,-0.8880465406914694,-0.9144377182021122,-0.5211410303995144,1.049636445037331,0.12232390443849318,-2.0586893854615655,-1.5202858530089673,-0.40263447824646204,1.8325327229882065,1.6673022225928802,1.657015449632417,0.2962411401088739,0.386251276504778,-2.253522349344998,1.276030322751779,-0.7919702628966907,-2.0481678361542253,0.008583861314095484,-1.6029359578007591,1.956257791766154,1.433772428158936,-1.200254340269475,1.3803743021997747,-0.3963775146997863,1.0660546944725808,-0.08287231269003364,-1.0859712545628188,0.500350348626683,0.2339183091196814,0.4819945600619156,-0.31855537346945006,-0.5093761681764406,0.558385892286072,0.953966786139149,0.839192677758795,0.048471523881743146,-1.5474065725484216,-1.8909462662201078,0.7351947232087239,-0.37164829503341046,1.1208987640487114,0.6888475316982976,0.677962843518159,1.1363830466510885,-0.38105743581649976,0.6065171020444854,-0.4479837259118824,0.2365568614368862,-0.8333119809615865,0.27204679683607635,-0.7596895853012653,2.1777267816052963,0.9312873220039574,-0.8267115897508728,0.1487351601332795,0.5915458699667264,1.5038450780349755,-0.3352681791461813,-2.1099176543092137,1.5771445379024143,0.8091738404203674,-0.6739047421592306,-0.913689745644477,-0.5944331466727886,-0.7105418191202748,-1.0101248388185204,-1.4208046714713545,-1.1797184220713801,1.7678733385517649,0.7550667911575442,-0.7151646691359723,-0.5006863352226607,1.057755351286955,-0.3515223285401845,-0.581737645431333,-1.3458754604253957,-0.6394272238106176,1.3153991377406664,1.221872352610647,-0.9680250774694741,0.5028609823520552,0.6851145095707062,-0.6312389017482332,1.4950896824150284,-0.8034776768728997,-1.2100840973579818,1.1441850207355366,0.28332562160147984,0.6468596707108374,-0.2442998739010766,-0.4590182154172423,-0.3117595903010268,-1.6066501796562287,-1.6695376844721934,-1.0601333284776515,0.39918740649441703,-0.6701183552061346,-0.6519380060527316,-0.7516583905114153,-0.9730195533740981,-0.4852590871376289,-0.32440954326137716,0.007131938827987913,0.08069715060726186,2.4724993391106174,-0.03341177396773967,0.3630323043239184,-2.0533368686304887,-1.2960998987840406,-0.04561952804636629,1.2721983055426014,2.245005381754811,1.030711995626644,0.3323165088232724,0.12190986601985397,0.08485927239266877,0.9743595154199585,1.1692256929634344,-0.7431763665318357,-1.6840057123760326,-1.5952424024766219,-0.051432783066286715,-1.0635927480661072,-0.9128131107925789,-0.17079657354787078,-0.011608859245284231,0.5571335077786018,-1.974828289242586,0.10677679103765675,0.4086475391518513,0.2731852206513065,-0.3079013079224868,-0.8101115031067307,0.6991269912947173,-1.2128897595146815,0.27542749686255374,0.49508373370617237,-0.9621134540272146,0.6762981643709539,-0.1362261593776144,0.48195827373310984,0.602254966690109,0.749939582986121,-1.4925145791658059,-0.5374889187207884,-0.695316020391709,0.9536482346341947,1.5720083635801403,-0.5082906114374218,-0.5075437196268203,0.8428271229050174,-1.0844190192606635,-0.5483639919161645,-0.4314515010893743,-0.4688116775802431,1.197670561768455,-0.2159929365378921,1.5832580253921418,-0.9036032131794467,0.5095202353195366,-0.6024819162992822,-1.611648928897666,-0.2890948823640299,0.02116417184104935,-0.3927640237793324,-0.9535803772458833,0.3212010425081293,-0.17656618088134188,-1.3487702361035203,-1.3374265379313277,-1.5197563279611683,1.3174248669781836,0.7902987830264192,-1.9211154806960633,0.32520230948932927,0.22587966108502583,-0.7143915779764074,-1.7883110790464791,-0.12275705457323793,-0.44843728992941123,-0.3863543381128285,-1.0496940520201168,-0.2623208885155028,0.2536505381593102,-0.6146522618445246,0.8438292887057584,0.44047764891291447,-0.7833360193271294,2.5684165800426837,0.2664507110967194,2.31078728462095,1.4567406644277447,1.4805937490667513,0.017480909162877346,1.8956257189723131,-0.7660649025846227,-0.06125859691160054,-0.3356594785165811,2.0083202458622518,0.47828598330143646,0.01591593245094871,0.41168996142833747,-0.6239238526702013,0.07428006342512962,-1.39547572493488,-1.7390254709519715,-0.39134323471309174,-3.2912272963226785,-1.0316737437053096,-1.290462500697553,-0.3198898538102409,-0.8030582967754304,-0.27338090679034593,0.5788743857592267,1.0828218164745802,-1.4519918661700724,0.20465060681472544,-0.11422072475337441,1.7826229239964175,1.8890651979965187,1.4007795369983556,1.5157864460712975,2.1418239751944665,-1.8539608542922859,0.7170447440041983,2.846014604771547,-0.4949112219670696,-1.0892227709731872,2.7314005909410044,1.1206086580165413,-2.107015404667906,-1.258897722194166,-1.6595563385315124,-4.610664356766214,0.0741448476548599,-2.1568446198175173,0.10433456951776696,-2.6481858841113257,-0.34989894420091394,0.09828246404789653,-1.0428099070988586,-0.6568144671979187,1.3669440280645557,-1.025496615107803,0.8297778916169244,-0.6686776278908855,-1.0149161949423466,-0.2508100485837342,-0.004612274174573783,0.2371774115790837,0.29669709878610995,-0.7154927200495512,-0.8970148850675241,-0.31502844544924924,-0.9021051163465316,-0.04602066847886861,0.0776048779880583,-0.8616677393924307,-0.02485997369418191,-1.6385144052349918,-2.2077136025353754,-2.2212216337148107,-1.441519087653158,-1.8732046122175967,-1.9823161649175272,-0.025364092149699057,-3.405978792905365,-0.002641011295841087,-1.8761388326359896,-0.4106630993916245,0.3783373185335967,-0.5917711645748924,-0.0038765854860059305,-0.8220986366607915,0.39759866516730197,-1.356789778028991,0.6626811487739854,-0.7283645581246339,-2.309280408402534,-0.4111037970190864,-0.9907798180607676,-1.7951612571489715,-0.5197962238546511,-0.8352168416167264,0.33715667667750854,-0.44151108255678606,-1.8328944477954339,-2.97022355109619,-2.5930741451723316,-0.7463490006126972,-2.8529104964164627,-1.6813267701798849,-1.45528966158661,-1.3003366081846308,-0.972599488440725,-1.3721359590202014,0.05049433677916228,-1.7148356966593041,-1.8453437154257666,-1.6645802209807676,-0.17526184533126749,-2.2849039893956173,1.0496784655434765,-1.61842057814118,-1.9708011540782278,-1.721990655987573,-0.05695626391715708,0.6590856699416361,0.061769786510823065,-0.7334292921295659,-1.1119681128559158,-0.5344566065815516,-0.13294957166687563,0.31339295424020863,-1.8966306188694269,-1.061907220558758,-2.589382148148049,-1.958292488156982,-0.5689534856713995,0.06626195202572775,-1.9449008937295285,-2.3482865909835833,-1.7371412853987782,-0.7738648667721164,-3.7106845076644217,-4.162890593233784,-1.8320268536647317,-1.8486558093772856,-1.2585518327772296,-0.9820984893778931,-1.2291074821150711,-1.2756779510826313,-0.9355029453345345,-0.22779239500006523,-1.282582121528159,-0.09483765812840012,-0.22806474225593915,0.15269650914800675,-0.6849194224303428,-0.26060117976712455,-0.9610902949970337,1.5236965001111016,-1.7092357975286123,-1.8097629904170893,-0.8762860328250583,2.576724845218612,-1.3070761230357826,1.3347030674261526,-0.29119427823009597,-0.5796367045447948,-2.971548478165319,-4.485127291128762,-3.008387344008146,-1.1853625752892527,-0.683245514849558,-1.7810597364258307,-0.7200554810579228,-0.08894384585166781,-0.10729652367759664,-0.3296998537999708,-0.007360473736249974,1.9159062460803964,2.718337476202761,1.1901245478561555,0.3304245937879609,-1.937226574655539,-0.7930919274718873,0.05847707147269338,0.8855658953198242,-0.47992064427114395,-2.1503429761900406,-2.093200194942623,0.7528992951031919,0.4175422760962063,0.15748919964960603,-1.1574561980630662,-0.26347449818787433,-1.3157435601630034,1.2283368770920224,-0.012362810272908838,3.9013767080339155,2.8834533983297317,3.2411678982968977,-1.356770197531601,0.6403242551938233,-0.4387578344564288,2.0009780886282194,0.23308753113669042,-0.20908619991144242,2.797149943707917,2.1772891780061485,2.200725245004723,1.3436444361492914,1.5988209825912212,1.254347718618592,-0.0295689117297516,-2.3073266935508014,-0.2099828846453532,-0.8646719894298749,2.196082544779502,2.4874394751956967,-0.4920863332950673,0.18852150650750776,0.6272454547073042,1.7959057012238435,1.1346515087900924,1.4501062955699762,5.729830043867447,7.387019408713878,1.9323008313466008,1.5266948533715499,1.148310008073686,0.5631855049387645,1.3400332522741536,4.0912970742320125,3.8312253969485184,1.4053334827063335,0.9517660115741058,-0.5733104858058372,-1.0345023319990247,0.8752479203276741,0.2746425775443048,0.9419707669761944,2.088605661663295,-0.6171227630650615,-0.22174430732128056,-0.5820730765434875,1.2428325594642868,0.16826085717666392,2.8327802106480267,3.2129991629245565,1.2073975934632286,3.0355934360231536,-0.8333011776893343,4.376200728405987,5.7029707583646925,3.7714583157363277,1.5578713244063647,2.137842083581437,2.047524353773691,0.7002502552542759,-0.1246120873323611,0.4004895729938752,0.7364361377327007,0.2710105034705884,-0.653892225583745,-2.768591555558583,-0.7825555721299207,0.6938023559714976,-0.5925139185051732,0.7130410606262776,-0.19154318550377608,1.0041726565091553,1.1086741045002964,0.9943485692115333,0.4831964441753794,2.5844605532817195,1.2977142943766191,1.9828022271734564,-0.6472059641067864,0.5918999823454082,1.1062850081081388,3.529661472669588,3.0710382815850576,1.7300117718687935,2.4357613111289838,1.1932840313221083,2.590436351070265,0.49573984542789945,-0.16902092070223645,-1.2094433733710603,-3.197704635196796,-0.0028104451023764567,-2.5671590482204887,-2.8769550827624957,-0.4885202727822515,0.23824393332754523,-0.6036846032334676,0.43916109179268403,0.5214705473394673,1.6403670017119658,-1.2503219896234958,-0.2890182330614987,-0.3277666909404409,-0.36653083348829407,1.2736763380430771,0.8600769297286622,1.6127121281595453,2.1727317155506713,2.2294723417249167,6.2382049929351995,-0.07162384123514011,3.603740818706192,2.146029415551869,0.9207755355997125,1.707710164177598,1.2595768906820424,0.33147325209259393,-1.2306922917725762,-3.2734833317074545,0.20994659858890732,-1.6008333886409085,-1.223973989532466,2.533176927853611,0.1301056594931637,-0.1549699460315034,0.27606496996215574,-0.9102365544280462,-0.9650187385505856,0.48202257728628917,-0.43241771933904355,1.007409432962236,0.22098377513523368,1.2701545855436533,2.9641615190891586,1.7930026336898264,2.1833815571575914,0.984263085828857,2.5990049839764926,1.5318190374549052,1.307233174314871,0.5363904011278485,1.1197911095256239,-0.24308780886780693,-0.5806781593363801,0.40567494442437163,-1.421141209057414,-0.048002681950908614,0.25230299103578097,-1.200055563605702,0.17219694601838198,-0.5430681606617374,-0.263575120244805,-0.6825056128963707,-1.0113252619653017,0.27729862267254907,0.16880842278996622,1.4174586892702623,-0.6570463486350036,1.6914143450383885,-1.304161763790953,0.3170587522891875,0.875349527175643,2.2965876188155843,1.11422149098358,1.4733346548972082,1.309189659768955,0.5537571924017026,1.632464882814964,1.7412711586936753,0.6728176430734399,1.0918841970831223,-0.6917433069115542,-0.30233178048089904,-0.07851037527194772,-0.5267594047036243,0.12752398384474367,1.6744007265258463,0.6876966431265968,0.24871052410069203,1.623693856122359,0.33217015068114186,-0.9490383409013836,-0.9011967140043133,-0.047153821229286526,-1.2443277608874501,-2.2757177790125196,-1.411883078053178,0.7345063578531194,-0.6915797063397602,1.8005679775422818,-2.5162638382895355,1.6589273000297753,1.0634738292128778,1.8055947025955272,1.2076884562583872,0.32274894147321953,0.7478271600327857,0.6297408874970069,1.4621047607835367,1.241236861446372,1.7899505537846,0.435725577767807,2.0389470751017957,0.643360165950166,0.5778095383498352,1.3125650437765426,-0.9043467659564816,0.675950269145092,3.311622868647271,0.08205092823326114,0.006965879038811653,0.9063379308057077,0.4355671412894294,0.6039416780600577,-1.0818999860166791,-1.4653612387871446,-0.8885199819589331,-1.7685816282719897,-1.5739163010230401,-0.6788757830763215,-0.027703041152602772,0.3340422044339353,-1.4986234833116958,-1.2269100545646983,-2.398646964408374,0.894573668829095,0.22170010631828044,1.3642413467082328,2.6629034237883777,2.6377870259581933,2.2408979172987316,0.021100021910908155,1.0056708699882846,-0.30419978288588023,-0.6914689692808773,-1.9635832852911486,0.6446023275183728,-0.2582392255513969,-1.468741866650104,0.4950660614486444,-0.9712370021750626,0.19912690340509845,0.06364721382194423,-0.10402806948588149,-1.7451840758158694,-2.5322240185273825,-3.5998044944637275,-3.340907157779531,-1.8714520572734619,-3.6941852891451226,-2.5025032146133035,-2.0294337513914202,-1.4175268220546173,-1.3359166819362802,-1.4884528797775711,0.5302551945872908,-0.891497299610072,-0.15346248695016257,2.6917841187003306,0.31582337742026273,-0.3170059056040847,-0.39009674345041684,-1.6984797168641124,0.719118775662845,0.20514657847411447,0.34106529939083413,-0.7180001702326139,-1.1525096618372428,1.5252233081377442,-0.2857015393678092,0.15675276423150025,-2.2621400721351717,-1.6223667619920972,-2.0138502170813073,-2.180478248200496,-3.9446623518824415,-2.0540518405869825,-1.6538645238426024,-1.2220175332741456,-1.0317139356177163,0.0569508154129582,-1.1574657077005572,0.8138578754186295,-2.4875206397359757,-1.2865793135310075,0.3422385358722449,2.456602686593967,-2.120584620567516,2.2531093968949696,0.6359188068740417,-1.135008904834271,0.6975869726667014,-1.4958657409268674,2.0547609310729924,-0.5584721430634084,1.3794593894466443,-0.7285276923974656,-0.15724204400471353,-0.022224378700464918,-1.0116389843509406,-2.335417937314592,-1.6326812513029205,0.02612278314015449,1.270094385157983,-0.7839841410864898,-1.3356881191530279,0.21948317933847383,-0.500780532771106,0.3037580071385573,-1.0375535448931774,-1.0577524918219543,-1.570158292620652,-0.022191518137519822,-0.8841514040479408,2.4752570233402515,2.2811445142293856,2.0913261596430157,0.9909350225481817,1.2917513079563836,0.5570672268958347,0.04018570686922518,-1.1715696205772563,-0.8285210849195307,0.5022630837926365,-1.3600938011951453,-1.9072956656621356,-1.087649234399816,-0.625114287556087,-2.1543446224359637,-0.09043640315899457,-0.008217364899843078,1.1361835075447726,2.7883828356326736,0.6581101514228354,-0.5214439373598827,-2.312124027398786,-1.6445086535720408,-0.5125872566576456,0.0435892162704937,-0.9454585002736867,1.193790898639148,0.46551943803254714,2.444613530610858,0.7053260962247329,-0.09541119817457779,0.3394434892656196,0.9502053565878572,-0.1313270967197426,-1.0547609693671731,-0.17878661261672402,-0.5878944137310159,-0.12677360455119088,-0.38145322786387115,-2.1586364295995,-0.7986934925198618,0.4293602572183193,-0.19647045429456175,1.253789187198922,1.8462446983467011,-1.2307008019981702,-0.46028073665739794,-0.03751612479142028,-1.3176486668431016,0.27718556050442394,0.09439640257053168,-0.9145430344201599,0.11027419854135176,-0.1993754251305891,-0.620559877033996,1.1884281789751052,2.273383148146221,0.7169242297356309,0.7083215492430954,0.4805374601875991,-0.11542197025817041,-0.004940516129879763,-0.6060516282427831,1.576536880189434,0.6801782006045272,-0.11792155875454582,-1.7715570516183519,-0.572731202921902,0.22284806963674222,0.8025485708057277,-0.19884135890940174,2.0727620934024285,-0.6869807193518298,1.6366534872398633,1.5009057155793133,1.2875265668291498,1.1476623214812527,1.353263059119012,1.412380527017351,-0.9461415532619177,0.05440771306045184,-0.6581744438063729,1.777167649299713,-0.4968676839651017,1.5066902225094003,0.0904880132741406,-0.46875016880783277,0.8314697375880253,0.6004131753544925,-0.061426326684636,1.5470402526647875,-0.48956608038699556,0.9378220941268843,1.2883229276380186,1.2319879664600737,0.04696870213907107,-0.530016225485392,-0.416640978651407,0.7039950130020367,-0.5731616617391041,0.7940850030584015,-0.16514280471285733,-1.1827359420794936,-0.7318103731701735,-0.15801118813508144,0.3525227329308273,2.3006114726310156,0.11913814151712318,1.2578489790559333,1.065724366341954,-1.1519866442470181,-1.6428425322115912,-0.4614644773782381,-1.8884780853844614,-1.8596151822485092,-0.17437833001517075,0.05560738805655322,1.1001058220745927,-1.4750926423262605,-1.2130190180783824,-0.3599657268026546,0.046797950346169785,0.2714977477819944,-0.7918237725945279,-1.2973156377777026,1.0182768853172872,2.513014077518664,-1.7184618829903384,0.3105267600711048,-1.4524323069457585,-0.8578412901885859,0.035201327666412374,-0.17877758699802276,0.6792130469710452,0.6413445294533828,0.07521096470380838,-0.6565254403781517,-0.8768180784584111,-0.40527412593728357,0.9882090652171029,-0.36339735331545076,1.2976878676733279,-0.7022498310774226,-0.447850013819083,-0.6087713555004788,2.4808532402393313,-0.5701828363899004,2.1519384787223057,-0.7156270933262621,-0.827204534147255,2.3607666848608635,0.45786965136046404,-0.9940557291396298,0.41288637951670576,0.4373401496295551,-0.5743170998383129,-0.48510125013566197,1.108773022634102,1.2789947537470703,0.4043005080916298,-0.6210421590864439,1.0900023669240706,0.9539518088257111,-0.6828989613519689,0.6347977394771562,-0.934734621278352,0.5210603849824108,2.1978333643390133,0.7295951459907737,1.4622117759806896,0.12277654058806713,0.08770552906919617,0.4253624351758957,-0.9767562666080103,0.060749440189012925,0.2905584920452615,0.3547548184339555,2.2088585968036134,-2.5760420768724956,-0.5028696648874846,-0.678533644696157,-0.47066102674297805,-1.2739988221878547,0.29290058295754356,-1.0562807615018206,0.3773742724165264,-0.32087836315238133,0.10659921354350246,-1.2374637329602551,-1.1281359901505286,-0.7279401397835318,-1.0580684913966079,-0.8753476540233387,-1.363913014920276,-2.224655114567585,0.09863511741999964,-1.2169530153696881,-1.3055565237114715,-0.12439475895785845,0.24075935866034665,0.25865779845950493,-0.18131110621901042,-0.8478829774183355,0.8851771777058214,-1.0651026044372527,1.3920090873594682,0.31708543563467817,0.2743615577086717,0.11605750999405155,0.8030174750274582,-1.3416520248664126,-0.9454917016882004,-0.02804502399810573,-0.7074768479804481,-2.597849594486249,-1.773168233216513,-1.015802415899588,-0.9668486597646962,-0.47318319752740795,-1.0071668067023352,0.1784602472542645,-1.7268865874965889,-1.7834813657874333,0.17934541860022044,-1.0053838084191622,-1.3172369414633807,-0.9042826194238169,0.8660116377308424,-0.840487338074762,0.46143153376834256,-3.0525120446937897,-0.9477395796905336,0.20636817047473083,1.6844830189379347,-0.042638739224744295,-1.2892519653531789,0.9615568516861931,-0.4123569960449271,-0.10461614921568874,-1.8756249572736539,-0.05431201088113718,-0.011164904237919852,-1.7387226495867325,-0.7219751117297746,-1.947649618580222,-0.4402557470054662,-0.12763452155171554,-0.4791275329091809,0.4290836744698202,0.0649687574377488,-0.9197814661811594,0.7067821926526369,-0.06255158894437857,-0.08015321661115608,0.42002650668046165,0.7760502133986389,-0.27482694119919193,-0.4255734821722143,0.07680644615597988,1.4004123953138508,-0.44258901181096627,-0.8841943221010553,-0.7424182511974919,2.003888245004139,0.41161431659993153,-2.4126894137267003,-2.4195682062590804,-0.46270169292222757,0.326868071004007,-0.8087987491996711,1.3348789841842266,-0.8034945441655121,-0.02443057337669325,1.068783699262017,0.4413453126170725,1.0739761003881294,2.1580230549846546,2.0849666950403587,0.10283534168050087,0.11706240694706184,-1.152282127911835,0.08295959964747386,0.7340847666053726,-0.34753812706611475,-1.7184971591092644,0.3919142705981654,-0.5587330173841872,-0.21672819991405157,0.059698156438123935,1.498672492503377,-0.594632515388547,-0.8451764937172492,0.6551506485136062,-0.8535002167953905,-1.7274663440641738,-0.6550469585200607,-1.0609255829250615,-1.4110648965812147,-1.3931285471568828,0.16370923803454382,-0.451735854510051,-0.6153920687478543,0.5606126799325598,-0.21922240609775848,-1.1414281749256203,0.6546157240153299,0.8408036522191962,1.7745489217049475,-0.23787194901480668,0.9973325674765462,1.4282433343832672,-0.7875344303257789,-0.9307735517159418,-0.9530071647033531,-1.5536060239219,-0.23520878715043603,-1.097052290059727,1.4655102182532984,-0.17388017383352314,-0.9905775825035414,-1.5046168528498212,-0.5645295784351788,1.2674268471382113,0.8027390314907823,-1.6966032833980895,-0.961884989653313,-1.985316013039252,-0.5446993808796633,-0.6869353898186887,0.1674454473207744,-1.4689547700597827,-0.07180701598596426,1.0485108856366703,1.214840560889319,1.7261030510694628,3.343115555795449,0.7469247476705466,1.0464213436894108,0.9236779575228448,-1.8074710750126917,-3.824505228960108,-3.057990943111193,-0.6123619071650609,-0.6710353433968926,1.2384519512166332,-0.2196354851631084,-0.10752878002279365,-0.8750717205151366,-0.738827342189516,-1.1842178777260195,0.45617533241643815,0.9460278521550705,-1.1439163977338138,1.3544752063949643,0.5531276626738829,-0.2142862669369732,0.6611680439874582,-0.24450515230308367,0.5375019775530081,1.5971150115302164,3.529065203248878,0.7957415757908165,2.276772845250348,-0.8498179738934306,-0.5306060225097629,1.1152583749048284,0.6036277242807494,1.1689663149663116,-3.3478726057802173,-4.630641987081782,0.2135080702149732,1.0541045717009028,0.11534596271019598,0.23579320237178492,0.24252800639821792,0.001272661995614884,-0.5961756806395611,-0.32040523886033245,-1.0096481378801365,-2.3720051115223617,0.1640839776803202,-1.5318994630598561,1.6260431054357791,-1.65835837525076,-0.03225878044153829,0.5006902244571628,-1.179983530263837,0.5192494437691194,1.4572953063115592,1.3823493551304944,3.140928414800321,1.599181449303907,1.5308624312384473,-0.27716824858634714,0.12791188997256958,2.0236332978661746,-0.5919021752603838,-3.1901483275347267,-1.7808718771648078,1.7999109509032778,-0.932677355940979,0.4989726110014285,-0.6423277181483475,-0.8963581033416758,0.7940637162164454,0.17690704338614943,-0.7504305295951977,-0.10555677192776543,-0.06512814601729534,-0.4704575164416771,-0.6399193443629196,1.5915419923036906,0.5884980200408828,-1.2020755775012395,-2.890374922717618,-1.1490548870967328,-1.0921259089952464,1.894672176501356,2.0403860537443,0.11363793560420997,1.953106452897204,1.7090804398164523,2.226305814224333,2.438627340205305,-2.035027716917294,-0.4975199612702373,-0.23731221084940454,0.204217793807551,-1.5965483540176055,-1.6610209822763913,0.33661316845215106,-0.7584223252356574,-0.8249450231538321,-0.26184584580265585,0.9418054434365913,-1.3403847939425173,1.383096514876465,-1.8405504312453773,1.349727653754027,-0.34473648754378056,-0.21352609690720542,-0.7379215203079021,-1.3376903606207524,-1.1571731433291812,-3.6521478386903095,-1.750174980493881,-1.148195764762729,1.0608897836430267,2.9371192723464343,0.8617663515206442,-0.4349779407665122,1.5025385665693896,-0.24486097361750983,-1.8201093271425568,-2.8099681608239164,-1.052470664058181,-0.22891275350107623,0.30956812108964465,-0.24640208421455218,-0.8795023774234988,-1.4370283558334944,2.6978967562480034,2.555091405938379,0.10373326653630115,0.7746223094696493,-0.2522688721164789,1.1881079092634879,0.1499541840734581,0.2742611467017938,0.9718663321776861,-2.1651653956599883,-2.9366344868027094,-4.374988842799979,-0.4446740772232839,0.24441831858759058,0.5010458238184139,1.6048633140583832,0.4858915004565597,2.6497089282118096,2.064502461249465,1.2425668831310193,0.12729447775046165,0.6275731336921417,0.2987194156805145,-0.9407904487951534,0.8159490486576286,-1.3844013991898212,1.7661934852512793,-0.9815995380401566,0.07611970519749696,1.3233799474428825,1.140580628074711,0.4980503986849283,0.5447583358903744,1.432551972449243,-0.8986593520164511,-1.2690815424911537,-1.4370774357152571,-1.692424201449709,-3.091479544971933,-5.8071429633431535,-0.16689053318844554,0.7573605695126077,-0.6335871455952269,0.9864082103270712,-1.5979615141785126,1.967448673112254,1.1321253935069233,0.6844452850880751,-0.6925540864491809,-1.8795157881088882,-0.7046299060220896,-0.4205877684413011,0.4031594310584951,-1.236852349185026,-0.5808385044284957,0.5207814397754008,0.8156588389838568,0.8884594220432862,1.2777731408840745,0.5995184360305952,1.221788333441116,0.8956851257218732,1.1380584089088566,1.2174069758526973,-1.3303999270271192,-5.771055836789886,-3.822006992446605,-3.502226771294295,-0.841306583170116,0.2707530027840326,-1.363891651280243,0.5779189525100404,-0.03391874617290444,-0.11990696969738125,1.3982451175932353,-0.3503079154220022,0.9711771995023,0.9046668614385206,-1.4211623403940508,1.6325369346134433,-0.2754860580769407,0.8537425215957581,-0.9152408307234482,-0.6272550850336276,2.4110198937561322,0.421684649525366,2.198467404259256,1.2766180701577112,0.18220671462368274,1.7330969596271326,1.297562856837577,-0.8069550537781829,-3.233581765635461,-3.696977519188018,-3.4582307478543743,0.052398456770428994,-0.17038618163138447,-0.13827893233835192,-0.26082468392314123,-1.3512179037217724,0.4597061137111582,-0.13840808912931513,0.24628027157693377,-0.403313367009392,0.8037740412387875,-1.219393141091812,-0.6466115953701023,1.152100796167058,0.879558526193947,0.19858833126535091,0.2838166373041258,1.0644014780007993,0.9552633012933971,0.2604787422165469,1.1625560553191485,0.18234988096890245,2.2533501577924473,1.3393272062850008,0.1672437174891895,-3.7185995294075993,-5.588645201909908,-4.095256913109314,-1.2816886350804018,-3.291196365439863,1.9070320485922276,0.9527608454163037,-1.5913433108572828,1.8740660959412538,-0.030949534908677096,1.4410633977910212,0.8169040408028115,-0.7364047180596089,-1.1907506297529824,-0.8566634833266074,-0.234404376066167,-0.8662803216865255,-0.5185273441077793,0.3981807480178817,-1.8477163390048703,0.8821073691059527,0.8768014820436196,2.5577959952273663,0.7680104567715298,0.9696363926712076,0.11466978409057962,2.319801440043521,-1.9525230584908575,-5.4554736427651935,-2.49057073556793,-2.59626630570302,0.4797541454879777,-1.6493495395415647,-1.6820107162447149,-0.9088203299269922,0.7819299523790553,0.708262753654005,0.16166281677609826,-0.8388623797103698,-0.8995971923019463,1.9403046835863076,1.8309107027624056,2.1594674940783727,-0.2512057122145826,-0.6409988609379451,0.8623571784207462,-0.4789495412362719,-1.3660220330064343,0.2569585679596787,-0.5392898829803763,0.9820396323688766,-0.48679641659603295,2.230796713338874,1.3875598459509186,0.033418121593591074,-2.410595772232222,-4.849541040882842,-1.2792059161148717,-2.9649595235977078,-0.03720675028378357,-0.2216772596024065,0.8356974601943834,-1.2975271604769079,-2.56816988809554,-0.3587138898307985,-0.9634060076813893,1.1334830611248614,-1.8441641421999875,-0.24376391548767057,-1.543455774207378,0.42019414946182937,0.04275814898459926,-0.1562537106459381,0.16372405141525104,-0.27027376821211946,-0.740451124143596,-1.8519867324172228,0.5075010600971122,-1.2663961861830657,0.5158887793766724,0.5373366542841759,0.9479766955363921,-0.03673950982160658,-0.31169180764281135,-1.0791598214475655,-1.255673438114784,-2.2677501324114266,-1.0406421632536642,-1.0086581241584385,-2.2792581344181833,-0.1358564579834788,0.07171479674531026,-0.5353609706372331,1.6557605499636383,1.0105198372974034,-1.271062553007279,0.1625906463394414,-0.2039754847600362,0.1164639095113854,0.11582478074348176,1.8881415665436752,-0.6660986294442034,0.020692792508090797,-1.5731990676844438,-1.271998675315594,0.45134006563996765,0.1250116465328461,-0.20557228388284257,0.75503333958091,0.2532999409907208,2.086468343223548,0.3171393345934867,-0.6831302742194832,0.049467339453574934,-1.9557292095842052,-1.122749137453403,-0.8623954790382488,-1.064337964652092,-1.1095877175741211,-1.6306673530939424,-1.7751071241011538,-0.326581711475499,-0.43494482267552376,-1.9132398024152175,-1.1956351740802293,-1.524001519827134,0.4363057498900874,-2.3405665152102473,-0.15883777849256958,-0.38681634459800435,-2.3194461116998037,-1.025891905334652,-1.3386649011584861,1.1131203686133069,1.2984282076226525,0.5707713751455438,-1.8848605133417398,-1.2309834297225084,-0.03452007237972388,1.6423475109613666,-0.719067986048219,1.0663698962639778,-0.544204169024654,0.4897613774498822,-0.0750421408299721,0.045899663942195496,-1.4469741263628662,-0.5278056733079649,0.15087262168915472,0.17750313050017408,1.8397392495469542,-0.4165111920785122,1.0143199921430262,-1.1567601308370987,-0.07606542752515506,1.2434980731351941,-1.6394230013889601,0.4869921112780889,-0.7926488963733864,1.0339775899436174,-1.8996911394105118,-2.3108311036639435,1.5179921016380162,-0.545277152622886,0.8178809598655422,-0.06292151331339234,-0.18295120507444562,0.12216878864576897,-1.1280867443840397,1.0355311368264004,-0.20573992333732175,-0.40372113319168784,-1.5837635863675694,0.6243858147682083,-0.029072108256460207,0.2644027344564479,-1.5919129201254392,-0.4051181145845634,-1.927937118901218,2.5084801316519147,0.9828318794685444,-0.3495688397861425,2.034232567892942,-0.7801049970162051,0.19531021278709074,-0.3846570053202344,-0.7769970823053219,-1.3078054818481029,-0.19521156896517436,-0.6303479466882063,-0.47226575846168484,-0.739658174292094,-1.7059959380832224,0.40802658032696476,-0.4192323682857577,1.7198253607574103,1.669819123471179,0.17322538146514108,-1.659189966872626,-0.3679978923835918,-0.17587263199278633,-0.09714852298000903,-2.0088161330753334,-2.027968631059014,-0.9925768361888331,-0.876550998033766,-1.1245486912930311,-1.2115872990479752,-0.6848763808348586,-0.13881242140306937,0.17446264551292737,-1.81677938151647,0.8982961678860335,-0.036158999211557956,0.6477708001351149,-0.7579067009024254,-1.105463188516504,1.3608248470744404,-0.2632254967143395,-0.42195076576327833,0.16991532427998174,0.005815086225419512,0.036183699242642545,0.2731778248771276,-0.02057744846615969,0.29862563539093706,-0.2821226989083608,-1.0761012914193409,0.7080280887039619,1.3754259029666933,-2.610419300124617,-1.0079279282039855,-2.601779765290174,-1.7311430260848781,-1.0162670246718237,-1.051577596129376,-0.41460659543892014,0.13994623795065572,-0.4858376304065513,0.830703866675043,1.3535555914694897,-0.7521835727792646,-0.17135906444501886,-0.24956936437336205,1.527127767458641,-0.48664360430583875,-0.9136382052337635,-0.3561073281519552,-0.9552112260709024,-0.8435539164902434,-0.585821277653656,-2.037223973340463,-1.6116271060678702,-2.895417310194992,-1.0178031101710299,-1.3760987001685527,-0.02976506747603162,-1.1887787977566642,0.3342375304242091,-0.06584125086817912,-1.2544347071077782,0.2253401653816611,-0.3285827930933442,-1.2412044038971,-0.4579562502510665,0.4101642634984169,-1.2648496371479707,0.9860176039907254,-1.0261142690223959,-0.6851094549442995,-0.3584344126654847,1.4326914363965688,1.1807343068759473,0.778871686303209,-0.16379600599908226,1.7633678163290374,-0.1698883230041808,0.684716923545522,0.5498171029673402,-0.7480792185618308,-1.0237235080952034,0.041537798833326325,-0.6626907393423197,0.944079494420228,-0.8148160383313618,0.24854552376565928,-0.9977021402585771,-0.047935003579665375,1.4049111888614978,-2.259911439557461,1.6326242502066235,0.7261235460532226,-1.3507935600273409,-0.6403738873003646,1.387460818017707,1.4525444290720457,0.41548354427154205,-0.009698942292683114,1.6747585166544268,-2.5211155502264946,0.6060922377737898,1.0690674322803808,-1.2677492607845815,1.94439592933693,-0.2931609236251762,-0.13840536293375028,-0.6367728406443748,1.3246017490445807,-0.10006105170928582,0.09413347743949789,1.077517383770893,0.24350271198124138,0.9712494413955118,-0.9975298677065833,0.08001522055872642,-0.4204477630858803,1.4081344198739156,-1.409725161071305,-0.30480043270505314,-0.41887889502625114,0.7390273763766912,-2.3572047288130347,-1.449921550272388,1.3444899568031203,-2.347905854674049,-0.7887038375260655,-0.23209265682319294,0.8060224339854908,0.1273807681853627,0.8644852002526551,0.8596826230729053,0.7761864115715523,0.19145954710389765,-1.0797383937992011,-0.6197222431867162,1.2873828845291733,-0.01463370035332222,0.4105369343904938,0.08992617144619265,-1.9515410749387365,1.5445800593580632,0.9698516484242425,0.4766608167128291,-1.3708897369678523,-0.17283850633296594,-1.5161747734420858,-0.38490724991476066,1.2436918240264663,-0.13258226398094142,2.0981124655662984,1.2102993955043477,0.34492735814901543,1.2934445020884977,-2.2235699690739485,0.7979201991976695,-0.6201114675355234,-0.024789935629582486,-1.615305695168596,0.13062631291572435,-0.9098091421245446,-0.6444015651997361,-0.2629100092710395,-0.6789447864856878,-0.32506074602165147,-0.8283774068471582,1.2100073674359741,-0.3584736359102129,-0.8423320478107842,0.27958292764070486,-0.04342311910491784,-0.94426047209629,-0.10686667451523799,-0.8031817164493394,-0.1730941964829246,-0.6236445096403904,-0.9325696082527967,-0.03487282147463436,-1.1510349695911404,-1.6325679776115958,-2.2618818895224737,0.13868692145115039,0.5007092266486176,2.0322571028576943,0.4444157250378356,0.7814013956107211,-0.27003517878198013,-1.8422612482120706,1.2525989345216801,0.6536605405767609,-2.081207173490287,0.36095624871502785,0.09249442027852606,2.0002784213340687,1.1803191812995821,-0.19990611306996148,0.8601593144743267,2.108943722608752,0.4620000148231395,-0.0761026402147036,1.388876052970659,-1.8359991985131852,2.081197412310536,-0.6099948946482076,0.08401722891273569,2.549370029360464,-0.2444007137389258,0.5826442741257571,0.4893026819312607,0.7750990588132376,-0.7003486433788793,0.6761455676224346,0.6614666211815604,-0.8027835900473625,0.3026839354325249,1.1001743526843362,-0.5857872310169339,-0.2100975562266828,0.1512698975681882,1.906589139214621,-0.12846760293260726,0.6837551149970631,0.24225936576708165,-1.8337437813663093,-1.703961405872253,0.9595517732672216,1.8804527145399306,-0.15747549001534997,-0.6356444286362815,0.7579747550773871,0.1558633258745417,-1.6437583679654801,0.19137931142423698,1.0752090253715403,0.18984761274614226,0.9040732537038099,-0.595736545990081,0.565748714891374,1.3015845392647372,-0.39230178069695393,-1.0023913929315402,-0.1619744962768153,0.8493272799430853,0.0863424924803606,0.7618903891488663,-0.7839498151921773,0.7425874185522492,-0.5079140592185156,-0.4542305263272339,-1.575451966590798,-1.3680784962598513,-1.0379108402600252,-3.273971484756809,-0.9887422094061065,-1.815778091764847,-0.41806722065119556,0.2777428001479577,1.6108140811785159,1.2605782834856314,0.028790457861859207,1.122474358280377,-1.1541821650820463,-2.236749360257629,-0.4196327702051137,1.5702168614385164,0.8418833553298078,0.5484719093587306,0.7095260422896312,0.6820958855722061,0.4075239904867514,1.5557028088518001,-0.08160995037692935,-0.7980329631339488,2.1262173568854754,1.0987888626671072,1.6680704723058752,0.08881938454663767,0.8791676038060231,0.7035498376430345,2.703608164296247,1.1502188069722927,2.4400047997955263,3.5483853953612496,1.5093843537727691,2.7711856836058217,0.746828146276235,1.9682227604566815,0.061813419566210046,-1.8299310259176054,1.9287041152646234,0.8372030536662696,1.3760958014926874,0.1075282678447153,0.13492896409138116,-0.5228923502119059,-2.487881033140734,-1.9444219967107643,1.607068577280423,-0.5789252397564743,1.283692932926353,0.9535973456762331,0.2308565925285224,1.2379577151944685,0.41821028426019796,-0.9079823817046463,0.6652878720035295,-0.9734836303024049,-1.3185422836632248,-0.05006697390920204,0.8248001470575356,-0.7281949392601411,-0.6574944298799451,0.5068509045929623,-0.10112571951575644,-0.7973026378202731,0.40470113668135427,1.6304043737602134,0.8222181830198737,-0.6218897096670306,-1.0911855241376376,-1.0527044657946993,-0.027452617187948957,-2.0331029797138425,0.7196577127634456,-0.051680207493456726,0.7880262687725825,1.1971912356529402,-0.07460978845090417,0.18427218634827328,0.870884812059195,-0.21943388711208628,-0.7693345021132652,1.025847568634913,-2.6927756303625268,-1.5617299945499605,-3.8289387312088548,-3.161629785467744,-2.917253789285212,-2.6618978484732687,-2.1552851242322184,-0.5792717456335715,-1.5217865695002308,-2.7535955339944986,1.405996065527734,0.8224124367210992,0.8761897542148053,1.5330107650797475,-0.3382185973806007,2.7524678038158985,0.08849255546880219,-0.1060279091087188,1.0465621894733417,-0.8015358857269971,-1.654112113664763,-0.5261955585040828,-0.8087782303415517,1.460371488455311,-0.4165698964251158,-0.947993665825489,-1.2421741384012033,-1.4075293733586232,-1.9752780525590128,0.014808172728103981,-2.479950400455616,-2.0317768331169317,-2.985355712563371,-1.6164527886422224,-1.7069837037216553,-0.3104371098113793,-0.5922580105159,-0.11672717398354239,-0.9910812405848344,-2.117704206269592,-1.7868553665739462,-0.28965190848560024,2.7040462874599274,0.5899373526466691,0.3337599884853005,1.0571823523972796,-1.0243364385202076,2.3014436577596533,0.9041556847849807,0.3453057558739399,-0.6865208092797777,-0.6373051728655531,0.8652321695430456,-0.08188882591799818,0.45816020120755313,-1.2586046721496742,-0.06565284837413343,-2.017019597726581,-2.260854283790264,-2.7606991917924715,-0.9236842084421627,-2.5486403064377825,-0.9798845805386722,-2.8225749189933227,0.49487841638684965,-0.6647847178283217,0.22290134355962846,-1.2856797950529175,-1.3835080606780445,-1.4492592014971548,-0.38280421816047555,-0.8285714396287595,-0.5291600918603363,0.09010000780410436,0.5149147158585193,0.6336470971942212,0.49804999119344306,-0.5610038674804523,-0.1993756316121906,0.9587284090069123,-0.4162750210766146,-2.880885649188161,-1.350317578854874,-2.3501320132968444,-1.6363007051397787,-1.2533465540643716,-4.517061454855185,-2.557776214865141,-2.3632214247138266,-0.6517980618863546,-2.02092405941035,-0.4618409753968818,-0.23128086168503417,0.4584775905650708,-1.5612487157693804,-0.4218128316315709,-1.4466617252864356,-0.6977046175902448,-1.962489200547094,-0.08204789712576947,0.31781468889362297,0.1925730662800531,-1.6723655770161139,-0.7472405185863547,-0.6134720268332043,0.07932184015496666,-2.2004060397725675,-2.735569306410188,-3.123019880000616,-0.14463011606713183,0.12010740460238209,-1.1709515465659872,-0.9931679121062046,-3.3442874404743157,-3.186042723518555,-1.9446618516142824,0.5338606102574125,-0.5748588679837127,-1.4542422179523018,-0.5052359385721384,-1.693163570164184,-0.5877152946993894,-1.6905976818761006,-0.6563864643397999,-1.1523585386997286,-0.910705896204106,-1.8572940995758613,0.37404293324544835,-1.4912744693643998,0.5164531728360446,-0.7627657257857845,-1.8937258990505628,-0.39351337745449844,-2.7463393320428477,-1.8550046268303968,-0.7250694269705911,0.6627974931572821,-0.45702262143913397,0.40434966120598465,1.3160725235157127,2.7691491372914823,0.25160280129757606,0.7511302909994044,-0.2732731211407533,2.3721152938008796,-0.3161977442541764,1.156031742500686,-1.5140951014210744,-0.96870100845308,-1.2925498775905138,0.5410382234486965,-0.30271282843957736,1.408374213840314,-0.11651522269885667,0.03690971854464834,-0.7718534629848235,-0.05509413237526159,0.7423710650230932,-0.25391022354747256,-1.1591477545685513,-1.3999485624033416,-0.981241487785863,2.49136400690907,3.5320692205142454,-0.37822908262661553,1.2926500422592033,1.3790305025300795,2.6887028446293004,1.3342116941672735,1.5080259577240784,0.2540796620472057,-1.4175720346195413,-0.2758825734624961,-0.6803571117282338,-0.008564083616238099,-0.8356849621085791,-0.586758817194111,0.6372312794025454,0.8040951275746441,0.2990651552087548,1.5017436343834574,-0.39563106282004556,-0.4113670604242821,0.628456257114143,-0.15093682697475547,-0.43569840083479694,-1.181881397641571,-0.9314287940932623,0.3910986032155284,2.769823179490774,-0.4999788389333422,0.5040866220227381,1.337602615924337,0.38592435989809465,0.45715144642330763,0.4318513155925252,0.8721437662034858,1.351402255224223,2.158651779399465,